{"learner":{"attributes":{"scikit_learn":"{\"_estimator_type\": \"regressor\"}"},"feature_names":["cluster","hour","day_of_week"],"feature_types":["int","int","int"],"gradient_booster":{"model":{"cats":{"enc":[],"feature_segments":[],"sorted_idx":[]},"gbtree_model_param":{"num_parallel_tree":"1","num_trees":"100"},"iteration_indptr":[0,1,2,3,4,5,6,7,8,9,10,11,12,13,14,15,16,17,18,19,20,21,22,23,24,25,26,27,28,29,30,31,32,33,34,35,36,37,38,39,40,41,42,43,44,45,46,47,48,49,50,51,52,53,54,55,56,57,58,59,60,61,62,63,64,65,66,67,68,69,70,71,72,73,74,75,76,77,78,79,80,81,82,83,84,85,86,87,88,89,90,91,92,93,94,95,96,97,98,99,100],"tree_info":[0,0,0,0,0,0,0,0,0,0,0,0,0,0,0,0,0,0,0,0,0,0,0,0,0,0,0,0,0,0,0,0,0,0,0,0,0,0,0,0,0,0,0,0,0,0,0,0,0,0,0,0,0,0,0,0,0,0,0,0,0,0,0,0,0,0,0,0,0,0,0,0,0,0,0,0,0,0,0,0,0,0,0,0,0,0,0,0,0,0,0,0,0,0,0,0,0,0,0,0],"trees":[{"base_weights":[1.1991861E-8,2.1852981E-2,-4.9922947E-2,4.9965987E-3,7.110413E-2,-1.4163555E-1,-3.1935465E-2,3.9209984E-2,-2.1794977E-2,5.2934203E-2,1.815032E-1,-1.9570266E-1,-1.1654634E-1,6.84738E-2,-5.7345964E-2,7.5278595E-2,-6.8893177E-3,-3.3331685E-2,1.25731E-1,9.729758E-2,-7.4489666E-3,2.503247E-1,-1.2362636E-1,-8.556546E-2,-2.8693182E-2,-4.9062036E-2,-1.5058562E-1,1.2811399E-1,-1.3495162E-1,-2.8807042E-2,-4.668933E-2,5.058523E-3,2.2650052E-2,-1.1832756E-2,2.620188E-3,-1.931346E-3,-1.047919E-2,-5.7602505E-5,2.660935E-2,1.7816221E-2,5.573766E-3,-6.6522746E-3,5.5882367E-3,1.34110795E-2,1.0280611E-1,1.5952382E-2,-2.6719576E-2,-2.4047619E-2,-3.1808023E-3,-1.0427688E-2,1.7091839E-2,-1.9308034E-2,-7.0134564E-3,2.5085036E-2,6.8331733E-3,-2.5049603E-2,-1.0427688E-2,-7.003143E-3,3.5307296E-3],"categories":[],"categories_nodes":[],"categories_segments":[],"categories_sizes":[],"default_left":[0,0,0,0,0,0,0,0,0,0,0,0,0,0,0,0,0,0,0,0,0,0,0,0,0,0,0,0,0,0,0,0,0,0,0,0,0,0,0,0,0,0,0,0,0,0,0,0,0,0,0,0,0,0,0,0,0,0,0],"id":0,"left_children":[1,3,5,7,9,11,13,15,17,19,21,23,25,27,29,31,33,35,37,39,41,43,45,47,-1,49,51,53,55,-1,57,-1,-1,-1,-1,-1,-1,-1,-1,-1,-1,-1,-1,-1,-1,-1,-1,-1,-1,-1,-1,-1,-1,-1,-1,-1,-1,-1,-1],"loss_changes":[2.9346957E0,1.5529418E0,1.3465638E0,1.2795541E0,9.4722724E-1,1.5896273E-1,1.7542212E0,1.0197768E0,1.3368286E0,1.1017122E0,1.4379113E0,3.8740516E-1,2.0854104E-1,1.7036829E0,1.3339431E0,1.2730998E0,9.987591E-1,7.2624505E-1,1.0106931E0,7.8656197E-1,6.5843123E-1,4.833234E0,5.710962E-1,1.58903E-1,0E0,4.1864693E-1,1.9842052E-1,7.753041E-1,8.7296486E-2,0E0,1.0073082E0,0E0,0E0,0E0,0E0,0E0,0E0,0E0,0E0,0E0,0E0,0E0,0E0,0E0,0E0,0E0,0E0,0E0,0E0,0E0,0E0,0E0,0E0,0E0,0E0,0E0,0E0,0E0,0E0],"parents":[2147483647,0,0,1,1,2,2,3,3,4,4,5,5,6,6,7,7,8,8,9,9,10,10,11,11,12,12,13,13,14,14,15,15,16,16,17,17,18,18,19,19,20,20,21,21,22,22,23,23,25,25,26,26,27,27,28,28,30,30],"right_children":[2,4,6,8,10,12,14,16,18,20,22,24,26,28,30,32,34,36,38,40,42,44,46,48,-1,50,52,54,56,-1,58,-1,-1,-1,-1,-1,-1,-1,-1,-1,-1,-1,-1,-1,-1,-1,-1,-1,-1,-1,-1,-1,-1,-1,-1,-1,-1,-1,-1],"split_conditions":[1.4E1,1.8E1,1.5E1,3E0,6E0,8E0,1.6E1,8E0,1.3E1,8E0,1.1E1,4E0,1.4E1,1.9E1,1E0,7E0,4E0,1.5E1,9E0,2E1,2.1E1,1E1,2E1,1E0,-2.8693182E-2,1.3E1,2E1,6E0,1E0,-2.8807042E-2,1.9E1,5.058523E-3,2.2650052E-2,-1.1832756E-2,2.620188E-3,-1.931346E-3,-1.047919E-2,-5.7602505E-5,2.660935E-2,1.7816221E-2,5.573766E-3,-6.6522746E-3,5.5882367E-3,1.34110795E-2,1.0280611E-1,1.5952382E-2,-2.6719576E-2,-2.4047619E-2,-3.1808023E-3,-1.0427688E-2,1.7091839E-2,-1.9308034E-2,-7.0134564E-3,2.5085036E-2,6.8331733E-3,-2.5049603E-2,-1.0427688E-2,-7.003143E-3,3.5307296E-3],"split_indices":[0,1,0,2,2,1,0,0,0,0,0,1,1,1,1,0,1,1,1,1,1,0,1,2,0,1,1,1,2,0,1,0,0,0,0,0,0,0,0,0,0,0,0,0,0,0,0,0,0,0,0,0,0,0,0,0,0,0,0],"split_type":[0,0,0,0,0,0,0,0,0,0,0,0,0,0,0,0,0,0,0,0,0,0,0,0,0,0,0,0,0,0,0,0,0,0,0,0,0,0,0,0,0,0,0,0,0,0,0,0,0,0,0,0,0,0,0,0,0,0,0],"sum_hessian":[2.688E3,1.87E3,8.18E2,1.394E3,4.76E2,1.33E2,6.85E2,6.12E2,7.82E2,4.1E2,6.6E1,4E1,9.3E1,1.38E2,5.47E2,3.43E2,2.69E2,7.26E2,5.6E1,2.36E2,1.74E2,5.4E1,1.2E1,1.9E1,2.1E1,3.2E1,6.1E1,1.07E2,3.1E1,2.3E1,5.24E2,2.96E2,4.7E1,6.1E1,2.08E2,6.08E2,1.18E2,3E1,2.6E1,7.9E1,1.57E2,9E1,8.4E1,4.8E1,6E0,4E0,8E0,4E0,1.5E1,2.6E1,6E0,3.9E1,2.2E1,3.4E1,7.3E1,5E0,2.6E1,4.08E2,1.16E2],"tree_param":{"num_deleted":"0","num_feature":"3","num_nodes":"59","size_leaf_vector":"1"}},{"base_weights":[1.8228637E-5,1.9753417E-2,-4.50667E-2,4.5203343E-3,6.4261585E-2,-1.2803602E-1,-2.879417E-2,-3.3664762E-3,1.03482716E-1,4.7695097E-2,1.6492677E-1,-1.7749634E-1,-1.05100825E-1,6.160083E-2,-5.1670283E-2,3.0808602E-2,-3.0015586E-2,-1.0505486E-2,2.1991198E-1,8.76665E-2,-6.710149E-3,2.2740525E-1,-1.1209197E-1,-7.837034E-2,-2.595429E-2,-4.3953896E-2,-1.359516E-1,1.1559814E-1,-1.22565135E-1,-2.604637E-2,-4.2027023E-2,6.783128E-3,-2.6185194E-3,-1.7385284E-3,-9.440078E-3,9.260579E-3,-1.2969434E-2,-2.695248E-2,3.17238E-2,1.6056871E-2,5.0199144E-3,-9.460751E-3,3.3298654E-3,1.2097341E-2,9.399417E-2,1.4676191E-2,-2.4344502E-2,-1.6349962E-2,6.144491E-4,-9.423542E-3,1.5626824E-2,-1.7425502E-2,-6.342602E-3,2.2648204E-2,6.1590923E-3,-2.2962136E-2,-9.423542E-3,-6.304541E-3,3.1806733E-3],"categories":[],"categories_nodes":[],"categories_segments":[],"categories_sizes":[],"default_left":[0,0,0,0,0,0,0,0,0,0,0,0,0,0,0,0,0,0,0,0,0,0,0,0,0,0,0,0,0,0,0,0,0,0,0,0,0,0,0,0,0,0,0,0,0,0,0,0,0,0,0,0,0,0,0,0,0,0,0],"id":1,"left_children":[1,3,5,7,9,11,13,15,17,19,21,23,25,27,29,31,33,35,37,39,41,43,45,47,-1,49,51,53,55,-1,57,-1,-1,-1,-1,-1,-1,-1,-1,-1,-1,-1,-1,-1,-1,-1,-1,-1,-1,-1,-1,-1,-1,-1,-1,-1,-1,-1,-1],"loss_changes":[2.3934536E0,1.2682412E0,1.1020623E0,1.0891426E0,7.8761196E-1,1.3335228E-1,1.4217529E0,1.1785055E0,1.3692812E0,8.9437115E-1,1.185107E0,3.1311035E-1,1.7134893E-1,1.3964493E0,1.0924234E0,1.1981817E0,5.8955854E-1,6.6336524E-1,2.5148857E0,6.392938E-1,6.185673E-1,4.0573034E0,4.7774467E-1,1.4489836E-1,0E0,3.4695265E-1,1.6118217E-1,6.3281214E-1,7.5413465E-2,0E0,8.1673545E-1,0E0,0E0,0E0,0E0,0E0,0E0,0E0,0E0,0E0,0E0,0E0,0E0,0E0,0E0,0E0,0E0,0E0,0E0,0E0,0E0,0E0,0E0,0E0,0E0,0E0,0E0,0E0,0E0],"parents":[2147483647,0,0,1,1,2,2,3,3,4,4,5,5,6,6,7,7,8,8,9,9,10,10,11,11,12,12,13,13,14,14,15,15,16,16,17,17,18,18,19,19,20,20,21,21,22,22,23,23,25,25,26,26,27,27,28,28,30,30],"right_children":[2,4,6,8,10,12,14,16,18,20,22,24,26,28,30,32,34,36,38,40,42,44,46,48,-1,50,52,54,56,-1,58,-1,-1,-1,-1,-1,-1,-1,-1,-1,-1,-1,-1,-1,-1,-1,-1,-1,-1,-1,-1,-1,-1,-1,-1,-1,-1,-1,-1],"split_conditions":[1.4E1,1.8E1,1.5E1,1.3E1,6E0,8E0,1.6E1,3E0,9E0,8E0,1.1E1,4E0,1.4E1,1.9E1,1E0,8E0,1.5E1,5E0,1E0,2E1,1E1,1E1,2E1,2E0,-2.595429E-2,1.3E1,2E1,6E0,1E0,-2.604637E-2,1.9E1,6.783128E-3,-2.6185194E-3,-1.7385284E-3,-9.440078E-3,9.260579E-3,-1.2969434E-2,-2.695248E-2,3.17238E-2,1.6056871E-2,5.0199144E-3,-9.460751E-3,3.3298654E-3,1.2097341E-2,9.399417E-2,1.4676191E-2,-2.4344502E-2,-1.6349962E-2,6.144491E-4,-9.423542E-3,1.5626824E-2,-1.7425502E-2,-6.342602E-3,2.2648204E-2,6.1590923E-3,-2.2962136E-2,-9.423542E-3,-6.304541E-3,3.1806733E-3],"split_indices":[0,1,0,0,2,1,0,2,1,0,0,1,1,1,1,0,1,1,2,1,0,0,1,1,0,1,1,1,2,0,1,0,0,0,0,0,0,0,0,0,0,0,0,0,0,0,0,0,0,0,0,0,0,0,0,0,0,0,0],"split_type":[0,0,0,0,0,0,0,0,0,0,0,0,0,0,0,0,0,0,0,0,0,0,0,0,0,0,0,0,0,0,0,0,0,0,0,0,0,0,0,0,0,0,0,0,0,0,0,0,0,0,0,0,0,0,0,0,0,0,0],"sum_hessian":[2.688E3,1.87E3,8.18E2,1.394E3,4.76E2,1.33E2,6.85E2,1.292E3,1.02E2,4.1E2,6.6E1,4E1,9.3E1,1.38E2,5.47E2,5.66E2,7.26E2,5.2E1,5E1,2.36E2,1.74E2,5.4E1,1.2E1,1.9E1,2.1E1,3.2E1,6.1E1,1.07E2,3.1E1,2.3E1,5.24E2,3.43E2,2.23E2,6.08E2,1.18E2,2.8E1,2.4E1,8E0,4.2E1,7.9E1,1.57E2,5.4E1,1.2E2,4.8E1,6E0,4E0,8E0,9E0,1E1,2.6E1,6E0,3.9E1,2.2E1,3.4E1,7.3E1,5E0,2.6E1,4.08E2,1.16E2],"tree_param":{"num_deleted":"0","num_feature":"3","num_nodes":"59","size_leaf_vector":"1"}},{"base_weights":[2.1388341E-5,1.7834414E-2,-4.0672373E-2,4.0640268E-3,5.8068912E-2,-1.15674615E-1,-2.5962502E-2,1.3391953E-2,-7.1744315E-2,4.296195E-2,1.4987326E-1,-1.6076352E-1,-9.47776E-2,2.4662158E-2,-6.0726486E-2,4.6001032E-2,-1.1969092E-2,-1.9566485E-1,-1.6641425E-2,7.898879E-2,-6.0741757E-3,2.0659369E-1,-1.01626486E-1,-7.1320064E-2,-2.3476832E-2,-3.9370507E-2,-1.227398E-1,1.5256922E-1,-1.793642E-3,-7.516115E-2,9.0118535E-2,3.569993E-3,1.9946758E-2,-3.9781188E-3,5.584748E-3,1.8806815E-3,-2.469557E-2,1.5952017E-2,-6.6775195E-3,1.4471254E-2,4.5211012E-3,-5.9441845E-3,5.113208E-3,1.0912298E-2,8.593753E-2,1.3502098E-2,-2.2180548E-2,-2.1494387E-2,-2.198012E-3,-8.516087E-3,1.4287381E-2,-1.0096702E-2,-2.3973873E-2,-1.2929739E-2,2.6095677E-2,1.7127643E-3,-1.13042565E-2,-1.1559923E-2,2.8270634E-4,-9.7551495E-3,1.660513E-2],"categories":[],"categories_nodes":[],"categories_segments":[],"categories_sizes":[],"default_left":[0,0,0,0,0,0,0,0,0,0,0,0,0,0,0,0,0,0,0,0,0,0,0,0,0,0,0,0,0,0,0,0,0,0,0,0,0,0,0,0,0,0,0,0,0,0,0,0,0,0,0,0,0,0,0,0,0,0,0,0,0],"id":2,"left_children":[1,3,5,7,9,11,13,15,17,19,21,23,25,27,29,31,33,35,37,39,41,43,45,47,-1,49,51,53,55,57,59,-1,-1,-1,-1,-1,-1,-1,-1,-1,-1,-1,-1,-1,-1,-1,-1,-1,-1,-1,-1,-1,-1,-1,-1,-1,-1,-1,-1,-1,-1],"loss_changes":[1.9499252E0,1.0363815E0,9.005778E-1,9.874137E-1,6.55105E-1,1.1102116E-1,1.2087994E0,1.0285121E0,1.0414858E0,7.265592E-1,9.7676206E-1,2.5464535E-1,1.4080226E-1,9.477612E-1,8.929739E-1,8.52875E-1,1.3225062E0,5.2166486E-1,9.556379E-1,5.195979E-1,5.373082E-1,3.405712E0,3.99669E-1,1.370033E-1,0E0,2.8755337E-1,1.3373262E-1,1.5001804E0,4.9239478E-1,1.1735013E0,5.292095E-1,0E0,0E0,0E0,0E0,0E0,0E0,0E0,0E0,0E0,0E0,0E0,0E0,0E0,0E0,0E0,0E0,0E0,0E0,0E0,0E0,0E0,0E0,0E0,0E0,0E0,0E0,0E0,0E0,0E0,0E0],"parents":[2147483647,0,0,1,1,2,2,3,3,4,4,5,5,6,6,7,7,8,8,9,9,10,10,11,11,12,12,13,13,14,14,15,15,16,16,17,17,18,18,19,19,20,20,21,21,22,22,23,23,25,25,26,26,27,27,28,28,29,29,30,30],"right_children":[2,4,6,8,10,12,14,16,18,20,22,24,26,28,30,32,34,36,38,40,42,44,46,48,-1,50,52,54,56,58,60,-1,-1,-1,-1,-1,-1,-1,-1,-1,-1,-1,-1,-1,-1,-1,-1,-1,-1,-1,-1,-1,-1,-1,-1,-1,-1,-1,-1,-1,-1],"split_conditions":[1.4E1,1.8E1,1.5E1,1.6E1,6E0,8E0,1.7E1,3E0,2E0,8E0,1.1E1,4E0,1.4E1,4E0,2.2E1,1.5E1,1E1,3E0,3E0,2E1,2.1E1,1E1,2E1,1E0,-2.3476832E-2,1.3E1,6E0,1E0,6E0,1.9E1,2E0,3.569993E-3,1.9946758E-2,-3.9781188E-3,5.584748E-3,1.8806815E-3,-2.469557E-2,1.5952017E-2,-6.6775195E-3,1.4471254E-2,4.5211012E-3,-5.9441845E-3,5.113208E-3,1.0912298E-2,8.593753E-2,1.3502098E-2,-2.2180548E-2,-2.1494387E-2,-2.198012E-3,-8.516087E-3,1.4287381E-2,-1.0096702E-2,-2.3973873E-2,-1.2929739E-2,2.6095677E-2,1.7127643E-3,-1.13042565E-2,-1.1559923E-2,2.8270634E-4,-9.7551495E-3,1.660513E-2],"split_indices":[0,1,0,1,2,1,0,2,2,0,0,1,1,1,1,1,0,0,2,1,1,0,1,2,0,1,2,1,2,0,2,0,0,0,0,0,0,0,0,0,0,0,0,0,0,0,0,0,0,0,0,0,0,0,0,0,0,0,0,0,0],"split_type":[0,0,0,0,0,0,0,0,0,0,0,0,0,0,0,0,0,0,0,0,0,0,0,0,0,0,0,0,0,0,0,0,0,0,0,0,0,0,0,0,0,0,0,0,0,0,0,0,0,0,0,0,0,0,0,0,0,0,0,0,0],"sum_hessian":[2.688E3,1.87E3,8.18E2,1.394E3,4.76E2,1.33E2,6.85E2,1.242E3,1.52E2,4.1E2,6.6E1,4E1,9.3E1,2.79E2,4.06E2,5.43E2,6.99E2,4.6E1,1.06E2,2.36E2,1.74E2,5.4E1,1.2E1,1.9E1,2.1E1,3.2E1,6.1E1,4.7E1,2.32E2,3.71E2,3.5E1,5.1E2,3.3E1,4.96E2,2.03E2,9E0,3.7E1,2.3E1,8.3E1,7.9E1,1.57E2,9E1,8.4E1,4.8E1,6E0,4E0,8E0,4E0,1.5E1,2.6E1,6E0,5.3E1,8E0,1.3E1,3.4E1,1.99E2,3.3E1,2.44E2,1.27E2,1E1,2.5E1],"tree_param":{"num_deleted":"0","num_feature":"3","num_nodes":"61","size_leaf_vector":"1"}},{"base_weights":[3.4719833E-5,3.1104904E-2,-2.0328222E-2,1.7160645E-2,1.2089125E-1,-8.194697E-2,-8.585029E-3,-1.454239E-1,2.4497999E-2,2.0378213E-1,4.9202923E-2,2.6602058E-2,-1.0007664E-1,3.344667E-2,-3.6698323E-2,-1.81492E-1,8.921064E-2,8.96069E-3,6.6391736E-2,7.678791E-2,4.542802E-1,-9.691215E-2,1.24124154E-1,8.672806E-2,-2.5205998E-2,-1.6102004E-1,-8.668815E-2,7.886561E-3,1.0121358E-1,-1.0467036E-1,-2.3367489E-2,-7.6228715E-3,-2.766724E-2,2.802896E-2,-1.9529816E-2,2.8441756E-3,-8.417619E-3,-2.6190733E-3,8.135005E-3,3.122515E-2,-5.1352265E-3,5.2322604E-2,1.3217494E-3,1.774738E-2,-1.8375928E-2,8.535264E-2,9.308634E-3,-7.953394E-4,3.717666E-2,-2.7810792E-2,-8.432652E-3,-7.2966055E-3,-2.2706743E-2,-2.9527707E-4,2.6753759E-2,2.7996559E-2,3.8065896E-3,-1.45837655E-2,-8.56009E-3,5.2781114E-3,-4.263991E-3],"categories":[],"categories_nodes":[],"categories_segments":[],"categories_sizes":[],"default_left":[0,0,0,0,0,0,0,0,0,0,0,0,0,0,0,0,0,0,0,0,0,0,0,0,0,0,0,0,0,0,0,0,0,0,0,0,0,0,0,0,0,0,0,0,0,0,0,0,0,0,0,0,0,0,0,0,0,0,0,0,0],"id":3,"left_children":[1,3,5,7,9,11,13,15,17,19,21,23,25,27,29,31,33,35,37,39,41,43,45,47,-1,49,51,53,55,57,59,-1,-1,-1,-1,-1,-1,-1,-1,-1,-1,-1,-1,-1,-1,-1,-1,-1,-1,-1,-1,-1,-1,-1,-1,-1,-1,-1,-1,-1,-1],"loss_changes":[1.7019099E0,1.3313099E0,1.1751478E0,1.1046467E0,8.3972335E-1,5.143312E-1,1.6153605E0,3.5470378E-1,5.7481474E-1,2.0646963E0,8.659045E-1,6.5854436E-1,1.6799617E-1,9.4840896E-1,7.3966956E-1,3.2957458E-1,3.8092187E-1,1.1745001E0,3.3311617E-1,1.3737905E0,6.6209173E-1,6.760124E-1,1.097779E0,8.6656845E-1,0E0,3.267635E-1,3.397969E-1,1.123753E0,1.6825092E0,9.271145E-2,1.0090022E0,0E0,0E0,0E0,0E0,0E0,0E0,0E0,0E0,0E0,0E0,0E0,0E0,0E0,0E0,0E0,0E0,0E0,0E0,0E0,0E0,0E0,0E0,0E0,0E0,0E0,0E0,0E0,0E0,0E0,0E0],"parents":[2147483647,0,0,1,1,2,2,3,3,4,4,5,5,6,6,7,7,8,8,9,9,10,10,11,11,12,12,13,13,14,14,15,15,16,16,17,17,18,18,19,19,20,20,21,21,22,22,23,23,25,25,26,26,27,27,28,28,29,29,30,30],"right_children":[2,4,6,8,10,12,14,16,18,20,22,24,26,28,30,32,34,36,38,40,42,44,46,48,-1,50,52,54,56,58,60,-1,-1,-1,-1,-1,-1,-1,-1,-1,-1,-1,-1,-1,-1,-1,-1,-1,-1,-1,-1,-1,-1,-1,-1,-1,-1,-1,-1,-1,-1],"split_conditions":[8E0,7E0,1E1,1E0,3E0,1E0,1.4E1,6E0,1.8E1,2E0,8E0,1.9E1,2E0,5E0,1.5E1,3E0,4E0,1.5E1,1E0,8E0,2.1E1,2E0,9E0,1.4E1,-2.5205998E-2,9E0,2.2E1,2.3E1,1.1E1,8E0,1.6E1,-7.6228715E-3,-2.766724E-2,2.802896E-2,-1.9529816E-2,2.8441756E-3,-8.417619E-3,-2.6190733E-3,8.135005E-3,3.122515E-2,-5.1352265E-3,5.2322604E-2,1.3217494E-3,1.774738E-2,-1.8375928E-2,8.535264E-2,9.308634E-3,-7.953394E-4,3.717666E-2,-2.7810792E-2,-8.432652E-3,-7.2966055E-3,-2.2706743E-2,-2.9527707E-4,2.6753759E-2,2.7996559E-2,3.8065896E-3,-1.45837655E-2,-8.56009E-3,5.2781114E-3,-4.263991E-3],"split_indices":[0,0,0,1,2,2,0,2,1,2,1,1,2,2,0,2,0,1,0,1,1,1,1,1,0,1,1,1,0,1,0,0,0,0,0,0,0,0,0,0,0,0,0,0,0,0,0,0,0,0,0,0,0,0,0,0,0,0,0,0,0],"split_type":[0,0,0,0,0,0,0,0,0,0,0,0,0,0,0,0,0,0,0,0,0,0,0,0,0,0,0,0,0,0,0,0,0,0,0,0,0,0,0,0,0,0,0,0,0,0,0,0,0,0,0,0,0,0,0,0,0,0,0,0,0],"sum_hessian":[2.688E3,1.064E3,1.624E3,9.22E2,1.42E2,2.59E2,1.365E3,3.9E1,8.83E2,6.5E1,7.7E1,3.7E1,2.22E2,5.47E2,8.18E2,3.4E1,5E0,6.45E2,2.38E2,4.4E1,2.1E1,2.6E1,5.1E1,3.1E1,6E0,3.8E1,1.84E2,3.98E2,1.49E2,1.33E2,6.85E2,1.7E1,1.7E1,3E0,2E0,5.34E2,1.11E2,3.3E1,2.05E2,1.5E1,2.9E1,1.8E1,3E0,6E0,2E1,1E0,5E1,2.4E1,7E0,1.4E1,2.4E1,1.69E2,1.5E1,3.83E2,1.5E1,3.8E1,1.11E2,4E1,9.3E1,1.38E2,5.47E2],"tree_param":{"num_deleted":"0","num_feature":"3","num_nodes":"61","size_leaf_vector":"1"}},{"base_weights":[7.8843215E-5,2.8132366E-2,-1.8307053E-2,1.5415493E-2,1.1001728E-1,-7.396409E-2,-7.7000717E-3,-1.315513E-1,2.2048136E-2,1.84612E-1,4.5488182E-2,2.4235936E-2,-9.036605E-2,3.0208323E-2,-3.3055507E-2,-1.6435109E-1,8.17061E-2,3.7751324E-2,-1.6621212E-2,-4.9976785E-2,2.9519737E-1,-8.7244205E-2,1.1353215E-1,7.919216E-2,-2.3045482E-2,-1.3354515E-1,-7.32829E-2,7.1642213E-3,9.130425E-2,-9.4376035E-2,-2.1029258E-2,-6.902933E-3,-2.5054222E-2,2.5926787E-2,-1.8227829E-2,7.6386817E-3,2.034518E-3,-9.46088E-3,1.9365242E-3,3.0577937E-2,-2.3638163E-2,-3.3091506E-5,3.591043E-2,2.6697908E-2,-1.4264624E-2,5.429865E-2,6.643207E-3,-7.1898656E-4,3.3923697E-2,-2.4004875E-2,-1.1093042E-2,6.1986963E-3,-9.277153E-3,-2.658258E-4,2.4245596E-2,2.5268689E-2,3.4293295E-3,6.1828787E-3,-9.842522E-3,2.1754578E-3,-5.0411187E-3],"categories":[],"categories_nodes":[],"categories_segments":[],"categories_sizes":[],"default_left":[0,0,0,0,0,0,0,0,0,0,0,0,0,0,0,0,0,0,0,0,0,0,0,0,0,0,0,0,0,0,0,0,0,0,0,0,0,0,0,0,0,0,0,0,0,0,0,0,0,0,0,0,0,0,0,0,0,0,0,0,0],"id":4,"left_children":[1,3,5,7,9,11,13,15,17,19,21,23,25,27,29,31,33,35,37,39,41,43,45,47,-1,49,51,53,55,57,59,-1,-1,-1,-1,-1,-1,-1,-1,-1,-1,-1,-1,-1,-1,-1,-1,-1,-1,-1,-1,-1,-1,-1,-1,-1,-1,-1,-1,-1,-1],"loss_changes":[1.3874722E0,1.1073098E0,9.5875436E-1,9.0262055E-1,6.799371E-1,4.2096496E-1,1.3139757E0,2.9322052E-1,5.374205E-1,1.7269306E0,7.143728E-1,5.5013025E-1,1.5470624E-1,7.708756E-1,6.0199165E-1,2.7026135E-1,3.2850006E-1,4.214453E-1,7.202953E-1,1.5312034E0,8.5000277E-1,5.679502E-1,1.0157497E0,7.2126144E-1,0E0,1.2270141E-1,4.328187E-1,9.2279273E-1,1.3714211E0,9.0840936E-2,8.634478E-1,0E0,0E0,0E0,0E0,0E0,0E0,0E0,0E0,0E0,0E0,0E0,0E0,0E0,0E0,0E0,0E0,0E0,0E0,0E0,0E0,0E0,0E0,0E0,0E0,0E0,0E0,0E0,0E0,0E0,0E0],"parents":[2147483647,0,0,1,1,2,2,3,3,4,4,5,5,6,6,7,7,8,8,9,9,10,10,11,11,12,12,13,13,14,14,15,15,16,16,17,17,18,18,19,19,20,20,21,21,22,22,23,23,25,25,26,26,27,27,28,28,29,29,30,30],"right_children":[2,4,6,8,10,12,14,16,18,20,22,24,26,28,30,32,34,36,38,40,42,44,46,48,-1,50,52,54,56,58,60,-1,-1,-1,-1,-1,-1,-1,-1,-1,-1,-1,-1,-1,-1,-1,-1,-1,-1,-1,-1,-1,-1,-1,-1,-1,-1,-1,-1,-1,-1],"split_conditions":[8E0,7E0,1E1,1E0,3E0,1E0,1.4E1,6E0,5E0,1E0,8E0,1.9E1,6E0,5E0,1.5E1,3E0,4E0,8E0,8E0,8E0,4E0,1E0,1E1,1.4E1,-2.3045482E-2,2E0,8E0,2.3E1,1.1E1,1E0,1.7E1,-6.902933E-3,-2.5054222E-2,2.5926787E-2,-1.8227829E-2,7.6386817E-3,2.034518E-3,-9.46088E-3,1.9365242E-3,3.0577937E-2,-2.3638163E-2,-3.3091506E-5,3.591043E-2,2.6697908E-2,-1.4264624E-2,5.429865E-2,6.643207E-3,-7.1898656E-4,3.3923697E-2,-2.4004875E-2,-1.1093042E-2,6.1986963E-3,-9.277153E-3,-2.658258E-4,2.4245596E-2,2.5268689E-2,3.4293295E-3,6.1828787E-3,-9.842522E-3,2.1754578E-3,-5.0411187E-3],"split_indices":[0,0,0,1,2,2,0,2,2,2,1,1,1,2,0,2,0,1,1,1,1,1,1,1,0,2,1,1,0,1,0,0,0,0,0,0,0,0,0,0,0,0,0,0,0,0,0,0,0,0,0,0,0,0,0,0,0,0,0,0,0],"split_type":[0,0,0,0,0,0,0,0,0,0,0,0,0,0,0,0,0,0,0,0,0,0,0,0,0,0,0,0,0,0,0,0,0,0,0,0,0,0,0,0,0,0,0,0,0,0,0,0,0,0,0,0,0,0,0,0,0,0,0,0,0],"sum_hessian":[2.688E3,1.064E3,1.624E3,9.22E2,1.42E2,2.59E2,1.365E3,3.9E1,8.83E2,6.5E1,7.7E1,3.7E1,2.22E2,5.47E2,8.18E2,3.4E1,5E0,6.28E2,2.55E2,2.1E1,4.4E1,2.6E1,5.1E1,3.1E1,6E0,6.1E1,1.61E2,3.98E2,1.49E2,1.33E2,6.85E2,1.7E1,1.7E1,3E0,2E0,1.94E2,4.34E2,8E1,1.75E2,7E0,1.4E1,8E0,3.6E1,3E0,2.3E1,4E0,4.7E1,2.4E1,7E0,9E0,5.2E1,2E1,1.41E2,3.83E2,1.5E1,3.8E1,1.11E2,3E0,1.3E2,2.79E2,4.06E2],"tree_param":{"num_deleted":"0","num_feature":"3","num_nodes":"61","size_leaf_vector":"1"}},{"base_weights":[1.12694535E-4,2.5407469E-2,-1.6465181E-2,1.3849988E-2,9.982809E-2,-6.667543E-2,-6.896271E-3,-1.1900262E-1,1.984575E-2,1.6679956E-1,4.1880067E-2,2.2079688E-2,-8.1500635E-2,2.7283631E-2,-2.9757919E-2,-1.4882904E-1,7.481865E-2,5.7818997E-3,5.7776302E-2,5.7127196E-2,3.8354757E-1,-7.805931E-2,1.033509E-1,7.23106E-2,-2.1070156E-2,-1.3499664E-1,-6.9782555E-2,6.5079103E-3,8.2365155E-2,-1.5456526E-1,-2.4486763E-2,-6.2509896E-3,-2.2687992E-2,2.3982277E-2,-1.7012639E-2,2.3273053E-3,-7.7821217E-3,-2.5597424E-3,7.1256547E-3,2.6063075E-2,-5.3312276E-3,4.472039E-2,-1.4706657E-3,1.5693322E-2,-1.5267304E-2,7.837008E-2,7.4644024E-3,-6.499652E-4,3.095538E-2,-2.3878278E-2,-6.7325085E-3,-5.7390896E-3,-1.9708252E-2,-2.3931135E-4,2.1972574E-2,2.2806613E-2,3.0894598E-3,1.7165277E-3,-2.1967944E-2,8.32845E-4,-4.9595097E-3],"categories":[],"categories_nodes":[],"categories_segments":[],"categories_sizes":[],"default_left":[0,0,0,0,0,0,0,0,0,0,0,0,0,0,0,0,0,0,0,0,0,0,0,0,0,0,0,0,0,0,0,0,0,0,0,0,0,0,0,0,0,0,0,0,0,0,0,0,0,0,0,0,0,0,0,0,0,0,0,0,0],"id":5,"left_children":[1,3,5,7,9,11,13,15,17,19,21,23,25,27,29,31,33,35,37,39,41,43,45,47,-1,49,51,53,55,57,59,-1,-1,-1,-1,-1,-1,-1,-1,-1,-1,-1,-1,-1,-1,-1,-1,-1,-1,-1,-1,-1,-1,-1,-1,-1,-1,-1,-1,-1,-1],"loss_changes":[1.1280065E0,9.146397E-1,7.8028345E-1,7.375799E-1,5.479779E-1,3.439108E-1,1.0682164E0,2.4237502E-1,4.7123533E-1,1.5469929E0,5.831438E-1,4.5956284E-1,1.3037169E-1,6.2657225E-1,5.350181E-1,2.216227E-1,2.8330183E-1,9.4646657E-1,2.7043575E-1,1.025262E0,5.643072E-1,4.973685E-1,9.570988E-1,6.0032225E-1,0E0,2.5783533E-1,2.8051883E-1,7.577708E-1,1.1178504E0,3.7277985E-1,6.488501E-1,0E0,0E0,0E0,0E0,0E0,0E0,0E0,0E0,0E0,0E0,0E0,0E0,0E0,0E0,0E0,0E0,0E0,0E0,0E0,0E0,0E0,0E0,0E0,0E0,0E0,0E0,0E0,0E0,0E0,0E0],"parents":[2147483647,0,0,1,1,2,2,3,3,4,4,5,5,6,6,7,7,8,8,9,9,10,10,11,11,12,12,13,13,14,14,15,15,16,16,17,17,18,18,19,19,20,20,21,21,22,22,23,23,25,25,26,26,27,27,28,28,29,29,30,30],"right_children":[2,4,6,8,10,12,14,16,18,20,22,24,26,28,30,32,34,36,38,40,42,44,46,48,-1,50,52,54,56,58,60,-1,-1,-1,-1,-1,-1,-1,-1,-1,-1,-1,-1,-1,-1,-1,-1,-1,-1,-1,-1,-1,-1,-1,-1,-1,-1,-1,-1,-1,-1],"split_conditions":[8E0,7E0,1E1,1E0,3E0,1E0,1.4E1,6E0,1.8E1,2E0,8E0,1.9E1,2E0,5E0,1E0,3E0,4E0,1.5E1,1E0,8E0,2.1E1,2E0,9E0,1.4E1,-2.1070156E-2,9E0,2.2E1,2.3E1,1.1E1,1.6E1,3E0,-6.2509896E-3,-2.2687992E-2,2.3982277E-2,-1.7012639E-2,2.3273053E-3,-7.7821217E-3,-2.5597424E-3,7.1256547E-3,2.6063075E-2,-5.3312276E-3,4.472039E-2,-1.4706657E-3,1.5693322E-2,-1.5267304E-2,7.837008E-2,7.4644024E-3,-6.499652E-4,3.095538E-2,-2.3878278E-2,-6.7325085E-3,-5.7390896E-3,-1.9708252E-2,-2.3931135E-4,2.1972574E-2,2.2806613E-2,3.0894598E-3,1.7165277E-3,-2.1967944E-2,8.32845E-4,-4.9595097E-3],"split_indices":[0,0,0,1,2,2,0,2,1,2,1,1,2,2,1,2,0,1,0,1,1,1,1,1,0,1,1,1,0,0,2,0,0,0,0,0,0,0,0,0,0,0,0,0,0,0,0,0,0,0,0,0,0,0,0,0,0,0,0,0,0],"split_type":[0,0,0,0,0,0,0,0,0,0,0,0,0,0,0,0,0,0,0,0,0,0,0,0,0,0,0,0,0,0,0,0,0,0,0,0,0,0,0,0,0,0,0,0,0,0,0,0,0,0,0,0,0,0,0,0,0,0,0,0,0],"sum_hessian":[2.688E3,1.064E3,1.624E3,9.22E2,1.42E2,2.59E2,1.365E3,3.9E1,8.83E2,6.5E1,7.7E1,3.7E1,2.22E2,5.47E2,8.18E2,3.4E1,5E0,6.45E2,2.38E2,4.4E1,2.1E1,2.6E1,5.1E1,3.1E1,6E0,3.8E1,1.84E2,3.98E2,1.49E2,3.2E1,7.86E2,1.7E1,1.7E1,3E0,2E0,5.34E2,1.11E2,3.3E1,2.05E2,1.5E1,2.9E1,1.8E1,3E0,6E0,2E1,1E0,5E1,2.4E1,7E0,1.4E1,2.4E1,1.69E2,1.5E1,3.83E2,1.5E1,3.8E1,1.11E2,9E0,2.3E1,3.41E2,4.45E2],"tree_param":{"num_deleted":"0","num_feature":"3","num_nodes":"61","size_leaf_vector":"1"}},{"base_weights":[1.4003624E-4,2.2986338E-2,-1.48331635E-2,5.4234933E-2,-1.4144673E-3,-6.0187977E-2,-6.1896173E-3,3.8198605E-2,1.5108901E-1,-2.5054796E-2,5.4639652E-2,2.0114753E-2,-7.3601946E-2,2.4642194E-2,-2.6811892E-2,2.0340567E-2,9.9880464E-2,-4.956386E-2,2.4582845E-1,-1.0763951E-2,-1.2653266E-1,1.2681337E-1,-3.8010467E-4,2.6037527E-2,-2.4178516E-2,-1.12477094E-1,-5.8269475E-2,5.911603E-3,7.430129E-2,-8.26134E-2,-1.5872804E-2,4.499756E-3,-1.1025515E-2,1.6435614E-2,3.081387E-4,2.562185E-2,-2.0934355E-2,-2.738206E-2,2.7636608E-2,3.7986094E-3,-5.8419504E-3,-2.4908239E-2,-3.5480186E-3,-9.619069E-4,2.8246194E-2,-4.71749E-3,1.2497668E-2,2.0392553E-3,-1.9264143E-2,-1.969539E-2,-9.441587E-3,6.5004304E-3,-7.6089757E-3,-8.778143E-4,1.1611519E-2,2.0584429E-2,2.783273E-3,-1.2123137E-2,-6.489053E-3,4.751653E-3,-3.192252E-3],"categories":[],"categories_nodes":[],"categories_segments":[],"categories_sizes":[],"default_left":[0,0,0,0,0,0,0,0,0,0,0,0,0,0,0,0,0,0,0,0,0,0,0,0,0,0,0,0,0,0,0,0,0,0,0,0,0,0,0,0,0,0,0,0,0,0,0,0,0,0,0,0,0,0,0,0,0,0,0,0,0],"id":6,"left_children":[1,3,5,7,9,11,13,15,17,19,21,23,25,27,29,31,33,35,37,39,41,43,45,-1,47,49,51,53,55,57,59,-1,-1,-1,-1,-1,-1,-1,-1,-1,-1,-1,-1,-1,-1,-1,-1,-1,-1,-1,-1,-1,-1,-1,-1,-1,-1,-1,-1,-1,-1],"loss_changes":[9.2020005E-1,8.1212944E-1,6.366704E-1,7.195655E-1,7.9512656E-1,2.8154683E-1,8.691937E-1,4.407782E-1,1.266827E0,6.106243E-1,7.068827E-1,4.1068858E-1,1.2636578E-1,5.092797E-1,4.9862063E-1,1.0128517E0,5.6120014E-1,1.1285093E0,7.8977346E-1,8.641301E-1,5.7140225E-1,1.6378516E0,6.042324E-1,0E0,2.517113E-1,7.600123E-2,3.608234E-1,6.469455E-1,9.111628E-1,8.3845735E-2,6.9944006E-1,0E0,0E0,0E0,0E0,0E0,0E0,0E0,0E0,0E0,0E0,0E0,0E0,0E0,0E0,0E0,0E0,0E0,0E0,0E0,0E0,0E0,0E0,0E0,0E0,0E0,0E0,0E0,0E0,0E0,0E0],"parents":[2147483647,0,0,1,1,2,2,3,3,4,4,5,5,6,6,7,7,8,8,9,9,10,10,11,11,12,12,13,13,14,14,15,15,16,16,17,17,18,18,19,19,20,20,21,21,22,22,24,24,25,25,26,26,27,27,28,28,29,29,30,30],"right_children":[2,4,6,8,10,12,14,16,18,20,22,24,26,28,30,32,34,36,38,40,42,44,46,-1,48,50,52,54,56,58,60,-1,-1,-1,-1,-1,-1,-1,-1,-1,-1,-1,-1,-1,-1,-1,-1,-1,-1,-1,-1,-1,-1,-1,-1,-1,-1,-1,-1,-1,-1],"split_conditions":[8E0,3E0,1E1,7E0,1.7E1,1E0,1.4E1,1.9E1,1E0,1.5E1,2E1,3E0,6E0,5E0,1.5E1,1.6E1,2.2E1,8E0,1E0,4E0,3E0,4E0,6E0,2.6037527E-2,1.9E1,2E0,8E0,2.1E1,1.1E1,8E0,1.6E1,4.499756E-3,-1.1025515E-2,1.6435614E-2,3.081387E-4,2.562185E-2,-2.0934355E-2,-2.738206E-2,2.7636608E-2,3.7986094E-3,-5.8419504E-3,-2.4908239E-2,-3.5480186E-3,-9.619069E-4,2.8246194E-2,-4.71749E-3,1.2497668E-2,2.0392553E-3,-1.9264143E-2,-1.969539E-2,-9.441587E-3,6.5004304E-3,-7.6089757E-3,-8.778143E-4,1.1611519E-2,2.0584429E-2,2.783273E-3,-1.2123137E-2,-6.489053E-3,4.751653E-3,-3.192252E-3],"split_indices":[0,2,0,0,1,2,0,1,2,1,1,1,1,2,0,1,1,1,1,0,0,0,2,0,1,2,1,1,0,1,0,0,0,0,0,0,0,0,0,0,0,0,0,0,0,0,0,0,0,0,0,0,0,0,0,0,0,0,0,0,0],"split_type":[0,0,0,0,0,0,0,0,0,0,0,0,0,0,0,0,0,0,0,0,0,0,0,0,0,0,0,0,0,0,0,0,0,0,0,0,0,0,0,0,0,0,0,0,0,0,0,0,0,0,0,0,0,0,0,0,0,0,0,0,0],"sum_hessian":[2.688E3,1.064E3,1.624E3,4.66E2,5.98E2,2.59E2,1.365E3,4.01E2,6.5E1,4.21E2,1.77E2,3.7E1,2.22E2,5.47E2,8.18E2,3.12E2,8.9E1,2.1E1,4.4E1,3.7E2,5.1E1,7.6E1,1.01E2,5E0,3.2E1,6.1E1,1.61E2,3.98E2,1.49E2,1.33E2,6.85E2,2.63E2,4.9E1,5.3E1,3.6E1,7E0,1.4E1,2E0,4.2E1,1.83E2,1.87E2,2.1E1,3E1,4.1E1,3.5E1,7.4E1,2.7E1,2.6E1,6E0,9E0,5.2E1,2E1,1.41E2,3.52E2,4.6E1,3.8E1,1.11E2,4E1,9.3E1,1.38E2,5.47E2],"tree_param":{"num_deleted":"0","num_feature":"3","num_nodes":"61","size_leaf_vector":"1"}},{"base_weights":[1.3173666E-4,2.0706221E-2,-1.3352545E-2,-1.0075826E-1,2.616373E-2,-5.4251608E-2,-5.5581755E-3,-1.4247286E-1,1.5200493E-1,5.619528E-2,2.7312115E-3,1.8335193E-2,-6.637738E-2,2.2240207E-2,-2.4151528E-2,-2.8068319E-2,-1.0464997E-1,6.85464E-2,3.2637805E-2,3.876851E-2,1.618002E-1,-1.8187966E-2,4.9372684E-2,2.3867734E-2,-2.2282626E-2,-1.0169933E-1,-5.244936E-2,5.347348E-3,6.702694E-2,-1.3725933E-1,-1.9378072E-2,5.98244E-3,-1.5967473E-2,2.1898711E-2,-1.5489E-2,2.2223765E-2,3.1246126E-3,6.2280106E-3,3.5787467E-2,-3.6717858E-4,-1.1442663E-2,1.1448636E-2,-2.6580547E-5,-1.5593655E-2,2.6724094E-3,-1.7922804E-2,-8.515242E-3,5.8813444E-3,-6.853436E-3,-2.2871318E-4,1.8824065E-2,-6.59496E-4,1.4073677E-2,1.6406354E-3,-1.9556759E-2,-7.818149E-3,-7.623696E-4],"categories":[],"categories_nodes":[],"categories_segments":[],"categories_sizes":[],"default_left":[0,0,0,0,0,0,0,0,0,0,0,0,0,0,0,0,0,0,0,0,0,0,0,0,0,0,0,0,0,0,0,0,0,0,0,0,0,0,0,0,0,0,0,0,0,0,0,0,0,0,0,0,0,0,0,0,0],"id":7,"left_children":[1,3,5,7,9,11,13,15,17,19,21,23,25,27,29,-1,31,33,-1,35,37,39,41,-1,43,45,47,49,51,53,55,-1,-1,-1,-1,-1,-1,-1,-1,-1,-1,-1,-1,-1,-1,-1,-1,-1,-1,-1,-1,-1,-1,-1,-1,-1,-1],"loss_changes":[7.462915E-1,7.086178E-1,5.1771986E-1,5.066768E-1,7.1763575E-1,2.3006147E-1,7.0657486E-1,1.7972708E-1,7.9498425E-2,8.1636477E-1,5.609505E-1,3.4541145E-1,1.0437411E-1,4.1424522E-1,4.395306E-1,0E0,3.0820793E-1,2.3560247E-1,0E0,5.244044E-1,1.2070525E0,5.541959E-1,5.753522E-1,0E0,2.2031532E-1,6.427568E-2,2.9395592E-1,5.575523E-1,8.14927E-1,2.9888785E-1,5.433763E-1,0E0,0E0,0E0,0E0,0E0,0E0,0E0,0E0,0E0,0E0,0E0,0E0,0E0,0E0,0E0,0E0,0E0,0E0,0E0,0E0,0E0,0E0,0E0,0E0,0E0,0E0],"parents":[2147483647,0,0,1,1,2,2,3,3,4,4,5,5,6,6,7,7,8,8,9,9,10,10,11,11,12,12,13,13,14,14,16,16,17,17,19,19,20,20,21,21,22,22,24,24,25,25,26,26,27,27,28,28,29,29,30,30],"right_children":[2,4,6,8,10,12,14,16,18,20,22,24,26,28,30,-1,32,34,-1,36,38,40,42,-1,44,46,48,50,52,54,56,-1,-1,-1,-1,-1,-1,-1,-1,-1,-1,-1,-1,-1,-1,-1,-1,-1,-1,-1,-1,-1,-1,-1,-1,-1,-1],"split_conditions":[8E0,1E0,1E1,6E0,3E0,1E0,1.4E1,1E0,7E0,7E0,1.7E1,3E0,6E0,5E0,1E0,-2.8068319E-2,2E0,4E0,3.2637805E-2,2E0,2E0,1.5E1,2E1,2.3867734E-2,7E0,2E0,8E0,2.3E1,1.2E1,1.6E1,1.5E1,5.98244E-3,-1.5967473E-2,2.1898711E-2,-1.5489E-2,2.2223765E-2,3.1246126E-3,6.2280106E-3,3.5787467E-2,-3.6717858E-4,-1.1442663E-2,1.1448636E-2,-2.6580547E-5,-1.5593655E-2,2.6724094E-3,-1.7922804E-2,-8.515242E-3,5.8813444E-3,-6.853436E-3,-2.2871318E-4,1.8824065E-2,-6.59496E-4,1.4073677E-2,1.6406354E-3,-1.9556759E-2,-7.818149E-3,-7.623696E-4],"split_indices":[0,1,0,2,2,2,0,2,0,0,1,1,1,2,1,0,2,0,0,1,2,1,1,0,1,2,1,1,1,0,0,0,0,0,0,0,0,0,0,0,0,0,0,0,0,0,0,0,0,0,0,0,0,0,0,0,0],"split_type":[0,0,0,0,0,0,0,0,0,0,0,0,0,0,0,0,0,0,0,0,0,0,0,0,0,0,0,0,0,0,0,0,0,0,0,0,0,0,0,0,0,0,0,0,0,0,0,0,0,0,0,0,0,0,0,0,0],"sum_hessian":[2.688E3,1.064E3,1.624E3,4.5E1,1.019E3,2.59E2,1.365E3,3.9E1,6E0,4.46E2,5.73E2,3.7E1,2.22E2,5.47E2,8.18E2,7E0,3.2E1,5E0,1E0,3.84E2,6.2E1,3.96E2,1.77E2,5E0,3.2E1,6.1E1,1.61E2,3.98E2,1.49E2,3.2E1,7.86E2,8E0,2.4E1,3E0,2E0,1.4E1,3.7E2,4.2E1,2E1,3.45E2,5.1E1,7.6E1,1.01E2,8E0,2.4E1,9E0,5.2E1,2E1,1.41E2,3.83E2,1.5E1,7.5E1,7.4E1,9E0,2.3E1,1.3E2,6.56E2],"tree_param":{"num_deleted":"0","num_feature":"3","num_nodes":"57","size_leaf_vector":"1"}},{"base_weights":[1.3976503E-4,6.8401378E-3,-3.7445225E-2,2.2155935E-2,-5.285728E-3,-5.0316356E-2,9.659662E-2,-8.722611E-2,2.6761206E-2,-1.3670481E-2,1.9469552E-2,-8.6674705E-2,1.966889E-2,-7.738603E-2,1.664894E-1,-2.9245655E-3,-1.308297E-1,5.072645E-2,6.227314E-3,-3.1651503E-3,-6.6111155E-2,5.0804798E-2,-5.5154465E-2,-4.745129E-2,-1.7494842E-1,7.9721905E-2,-5.896573E-2,-2.2809971E-2,4.1321736E-2,4.070959E-1,8.981664E-2,-2.263846E-2,1.3144392E-2,-2.9132782E-2,-4.791851E-3,3.4957496E-3,1.462871E-2,-1.1858139E-3,6.706311E-3,-1.8070181E-3,4.0390748E-3,1.0347492E-3,-1.3624615E-2,1.367712E-2,7.7704707E-4,-2.0165501E-2,-2.333367E-3,-2.0111544E-2,-1.0628501E-3,-2.074763E-2,8.664228E-3,2.2600272E-3,3.188345E-2,3.5074435E-3,-1.2084685E-2,1.4325025E-2,-2.809971E-3,1.6386316E-3,7.923434E-2,-1.8646362E-3,3.094064E-2],"categories":[],"categories_nodes":[],"categories_segments":[],"categories_sizes":[],"default_left":[0,0,0,0,0,0,0,0,0,0,0,0,0,0,0,0,0,0,0,0,0,0,0,0,0,0,0,0,0,0,0,0,0,0,0,0,0,0,0,0,0,0,0,0,0,0,0,0,0,0,0,0,0,0,0,0,0,0,0,0,0],"id":8,"left_children":[1,3,5,7,9,11,13,15,17,19,21,23,25,27,29,31,33,35,37,39,41,43,45,47,49,51,53,-1,55,57,59,-1,-1,-1,-1,-1,-1,-1,-1,-1,-1,-1,-1,-1,-1,-1,-1,-1,-1,-1,-1,-1,-1,-1,-1,-1,-1,-1,-1,-1,-1],"loss_changes":[6.7743623E-1,4.241097E-1,7.070454E-1,5.106019E-1,2.6491395E-1,9.482766E-1,4.5064878E-1,1.5032724E-1,4.7652882E-1,5.248047E-1,7.58093E-1,8.3998585E-1,6.091483E-1,2.0622522E-1,4.430831E-1,4.8014662E-1,3.4533146E-1,6.684668E-1,5.762223E-1,5.1684546E-1,8.540356E-1,8.4242463E-1,4.4282395E-1,9.6543884E-1,6.5615034E-1,9.8986477E-1,3.3012006E-1,0E0,5.3557463E-2,8.901358E-1,5.05934E-1,0E0,0E0,0E0,0E0,0E0,0E0,0E0,0E0,0E0,0E0,0E0,0E0,0E0,0E0,0E0,0E0,0E0,0E0,0E0,0E0,0E0,0E0,0E0,0E0,0E0,0E0,0E0,0E0,0E0,0E0],"parents":[2147483647,0,0,1,1,2,2,3,3,4,4,5,5,6,6,7,7,8,8,9,9,10,10,11,11,12,12,13,13,14,14,15,15,16,16,17,17,18,18,19,19,20,20,21,21,22,22,23,23,24,24,25,25,26,26,28,28,29,29,30,30],"right_children":[2,4,6,8,10,12,14,16,18,20,22,24,26,28,30,32,34,36,38,40,42,44,46,48,50,52,54,-1,56,58,60,-1,-1,-1,-1,-1,-1,-1,-1,-1,-1,-1,-1,-1,-1,-1,-1,-1,-1,-1,-1,-1,-1,-1,-1,-1,-1,-1,-1,-1,-1],"split_conditions":[1.7E1,3E0,2.2E1,1E0,1.8E1,1.9E1,2E0,6E0,8E0,1.5E1,1.2E1,5E0,1.3E1,1.8E1,3E0,1E0,9E0,7E0,1.5E1,1.1E1,5E0,2E1,1.9E1,4E0,2E1,1.1E1,3E0,-2.2809971E-2,1.9E1,2.3E1,6E0,-2.263846E-2,1.3144392E-2,-2.9132782E-2,-4.791851E-3,3.4957496E-3,1.462871E-2,-1.1858139E-3,6.706311E-3,-1.8070181E-3,4.0390748E-3,1.0347492E-3,-1.3624615E-2,1.367712E-2,7.7704707E-4,-2.0165501E-2,-2.333367E-3,-2.0111544E-2,-1.0628501E-3,-2.074763E-2,8.664228E-3,2.2600272E-3,3.188345E-2,3.5074435E-3,-1.2084685E-2,1.4325025E-2,-2.809971E-3,1.6386316E-3,7.923434E-2,-1.8646362E-3,3.094064E-2],"split_indices":[0,2,1,1,1,0,2,0,0,1,0,2,1,0,2,2,0,0,0,1,2,1,1,1,1,1,2,0,0,1,2,0,0,0,0,0,0,0,0,0,0,0,0,0,0,0,0,0,0,0,0,0,0,0,0,0,0,0,0,0,0],"split_type":[0,0,0,0,0,0,0,0,0,0,0,0,0,0,0,0,0,0,0,0,0,0,0,0,0,0,0,0,0,0,0,0,0,0,0,0,0,0,0,0,0,0,0,0,0,0,0,0,0,0,0,0,0,0,0,0,0,0,0,0,0],"sum_hessian":[2.688E3,2.282E3,4.06E2,1.008E3,1.274E3,3.71E2,3.5E1,4E1,9.68E2,9.52E2,3.22E2,2.44E2,1.27E2,1E1,2.5E1,1.4E1,2.6E1,4.46E2,5.22E2,7.94E2,1.58E2,2.27E2,9.5E1,1.7E2,7.4E1,7.2E1,5.5E1,4E0,6E0,5E0,2E1,5E0,9E0,8E0,1.8E1,3.84E2,6.2E1,4.03E2,1.19E2,5.92E2,2.02E2,7.6E1,8.2E1,7.5E1,1.52E2,1.6E1,7.9E1,3.2E1,1.38E2,6.6E1,8E0,5.9E1,1.3E1,2.2E1,3.3E1,2E0,4E0,3E0,2E0,1.4E1,6E0],"tree_param":{"num_deleted":"0","num_feature":"3","num_nodes":"61","size_leaf_vector":"1"}},{"base_weights":[1.4541505E-4,6.1393976E-3,-3.3477206E-2,1.9920738E-2,-4.771593E-3,-4.5305397E-2,8.9677356E-2,-7.956249E-2,2.410948E-2,-1.2314309E-2,1.7497696E-2,-7.8142986E-2,1.790174E-2,-7.067423E-2,1.5406929E-1,-3.9658956E-2,-1.7269114E-1,9.392139E-3,5.310905E-2,-2.845837E-3,-5.957922E-2,4.578772E-2,-4.9873378E-2,-1.9188432E-1,-5.2980796E-2,7.2217435E-2,-5.322232E-2,-2.0985171E-2,3.8834576E-2,3.7986517E-1,8.221955E-2,-1.0093485E-2,3.7580268E-3,2.7319894E-3,-2.4239702E-2,3.2822236E-3,-3.2078214E-3,4.3453337E-3,1.912776E-2,-1.6266222E-3,3.6371571E-3,9.326186E-4,-1.227857E-2,1.2764268E-3,1.4016397E-2,-1.826757E-2,-2.1029466E-3,-1.3813901E-2,-2.1236084E-2,-9.573304E-4,-1.4642862E-2,2.0377913E-3,2.8922841E-2,3.1719492E-3,-1.0911759E-2,1.3370022E-2,-2.5851727E-3,1.5157358E-3,7.395206E-2,-1.6906023E-3,2.8288582E-2],"categories":[],"categories_nodes":[],"categories_segments":[],"categories_sizes":[],"default_left":[0,0,0,0,0,0,0,0,0,0,0,0,0,0,0,0,0,0,0,0,0,0,0,0,0,0,0,0,0,0,0,0,0,0,0,0,0,0,0,0,0,0,0,0,0,0,0,0,0,0,0,0,0,0,0,0,0,0,0,0,0],"id":9,"left_children":[1,3,5,7,9,11,13,15,17,19,21,23,25,27,29,31,33,35,37,39,41,43,45,47,49,51,53,-1,55,57,59,-1,-1,-1,-1,-1,-1,-1,-1,-1,-1,-1,-1,-1,-1,-1,-1,-1,-1,-1,-1,-1,-1,-1,-1,-1,-1,-1,-1,-1,-1],"loss_changes":[5.4212886E-1,3.433854E-1,5.96938E-1,4.2237827E-1,2.1437842E-1,7.7351075E-1,3.826013E-1,1.4551389E-1,4.1306704E-1,4.2632324E-1,6.1789876E-1,6.910194E-1,4.9832708E-1,1.7580226E-1,3.9057547E-1,1.4578024E-1,1.7392561E-1,6.267984E-1,4.2661017E-1,4.1901022E-1,6.936326E-1,7.088026E-1,3.638901E-1,1.9087315E-2,8.1797785E-1,8.153374E-1,2.6934052E-1,0E0,4.641194E-2,7.7580553E-1,4.2249683E-1,0E0,0E0,0E0,0E0,0E0,0E0,0E0,0E0,0E0,0E0,0E0,0E0,0E0,0E0,0E0,0E0,0E0,0E0,0E0,0E0,0E0,0E0,0E0,0E0,0E0,0E0,0E0,0E0,0E0,0E0],"parents":[2147483647,0,0,1,1,2,2,3,3,4,4,5,5,6,6,7,7,8,8,9,9,10,10,11,11,12,12,13,13,14,14,15,15,16,16,17,17,18,18,19,19,20,20,21,21,22,22,23,23,24,24,25,25,26,26,28,28,29,29,30,30],"right_children":[2,4,6,8,10,12,14,16,18,20,22,24,26,28,30,32,34,36,38,40,42,44,46,48,50,52,54,-1,56,58,60,-1,-1,-1,-1,-1,-1,-1,-1,-1,-1,-1,-1,-1,-1,-1,-1,-1,-1,-1,-1,-1,-1,-1,-1,-1,-1,-1,-1,-1,-1],"split_conditions":[1.7E1,3E0,2.2E1,1E0,1.8E1,1.9E1,2E0,2E0,2E0,1.5E1,1.2E1,4E0,1.3E1,1.8E1,3E0,9E0,5E0,1.6E1,1.6E1,1.1E1,5E0,6E0,1.9E1,2E0,5E0,1.1E1,3E0,-2.0985171E-2,1.9E1,2.3E1,6E0,-1.0093485E-2,3.7580268E-3,2.7319894E-3,-2.4239702E-2,3.2822236E-3,-3.2078214E-3,4.3453337E-3,1.912776E-2,-1.6266222E-3,3.6371571E-3,9.326186E-4,-1.227857E-2,1.2764268E-3,1.4016397E-2,-1.826757E-2,-2.1029466E-3,-1.3813901E-2,-2.1236084E-2,-9.573304E-4,-1.4642862E-2,2.0377913E-3,2.8922841E-2,3.1719492E-3,-1.0911759E-2,1.3370022E-2,-2.5851727E-3,1.5157358E-3,7.395206E-2,-1.6906023E-3,2.8288582E-2],"split_indices":[0,2,1,1,1,0,2,2,2,1,0,1,1,0,2,0,0,1,0,1,2,2,1,2,2,1,2,0,0,1,2,0,0,0,0,0,0,0,0,0,0,0,0,0,0,0,0,0,0,0,0,0,0,0,0,0,0,0,0,0,0],"split_type":[0,0,0,0,0,0,0,0,0,0,0,0,0,0,0,0,0,0,0,0,0,0,0,0,0,0,0,0,0,0,0,0,0,0,0,0,0,0,0,0,0,0,0,0,0,0,0,0,0,0,0,0,0,0,0,0,0,0,0,0,0],"sum_hessian":[2.688E3,2.282E3,4.06E2,1.008E3,1.274E3,3.71E2,3.5E1,4E1,9.68E2,9.52E2,3.22E2,2.44E2,1.27E2,1E1,2.5E1,2.9E1,1.1E1,6.43E2,3.25E2,7.94E2,1.58E2,2.27E2,9.5E1,4.3E1,2.01E2,7.2E1,5.5E1,4E0,6E0,5E0,2E1,1.6E1,1.3E1,3E0,8E0,4.11E2,2.32E2,3.05E2,2E1,5.92E2,2.02E2,7.6E1,8.2E1,1.69E2,5.8E1,1.6E1,7.9E1,1.4E1,2.9E1,1.38E2,6.3E1,5.9E1,1.3E1,2.2E1,3.3E1,2E0,4E0,3E0,2E0,1.4E1,6E0],"tree_param":{"num_deleted":"0","num_feature":"3","num_nodes":"61","size_leaf_vector":"1"}},{"base_weights":[1.4787927E-4,-7.4227764E-3,2.2220477E-2,1.5111828E-3,-7.698106E-2,1.0002442E-2,9.468717E-2,2.0240366E-2,-1.3109604E-2,-2.2971073E-2,-1.2625936E-1,4.1103143E-2,-1.0906535E-2,6.386558E-2,3.1282157E-1,1.0890252E-2,1.6240793E-1,-1.7363206E-2,6.621438E-2,-1.2322112E-1,1.7927315E-2,-1.889525E-1,-1.1089702E-1,8.7829694E-2,1.7183987E-2,-8.0176264E-2,3.2672416E-3,1.39351E-1,-6.012158E-2,4.603392E-3,4.6635523E-1,-4.403131E-3,2.4884127E-3,1.5662728E-3,2.5801126E-2,-9.6177537E-4,-1.4797756E-2,-1.1899128E-2,1.3950817E-2,3.6714578E-3,-1.8740095E-2,-9.390558E-3,1.0019669E-2,-2.2355655E-2,2.2654876E-3,-5.761392E-3,-1.5692411E-2,-2.1478316E-2,1.6096778E-2,1.133961E-2,-3.8236675E-3,-9.755655E-3,9.250577E-3,4.9753147E-3,-2.9994582E-3,6.0066185E-3,6.744374E-2,-1.2861465E-2,7.616692E-3,1.7858172E-2,-1.7090939E-2,1.3642256E-1,1.4319866E-2],"categories":[],"categories_nodes":[],"categories_segments":[],"categories_sizes":[],"default_left":[0,0,0,0,0,0,0,0,0,0,0,0,0,0,0,0,0,0,0,0,0,0,0,0,0,0,0,0,0,0,0,0,0,0,0,0,0,0,0,0,0,0,0,0,0,0,0,0,0,0,0,0,0,0,0,0,0,0,0,0,0,0,0],"id":10,"left_children":[1,3,5,7,9,11,13,15,17,19,21,23,25,27,29,31,33,35,37,39,41,43,45,47,49,51,53,55,57,59,61,-1,-1,-1,-1,-1,-1,-1,-1,-1,-1,-1,-1,-1,-1,-1,-1,-1,-1,-1,-1,-1,-1,-1,-1,-1,-1,-1,-1,-1,-1,-1,-1],"loss_changes":[4.4950768E-1,1.2448424E0,6.0732317E-1,4.86597E-1,6.039263E-1,3.834655E-1,6.45623E-1,1.0337428E0,3.3788744E-1,4.532162E-1,9.365606E-2,2.633761E-1,3.4684217E-1,8.319895E-1,5.657157E-1,5.636856E-1,6.693665E-1,9.576373E-1,7.088959E-1,3.3534902E-1,7.362424E-1,1.6615897E-1,2.3130071E-1,1.8051755E0,8.4681386E-1,1.8910041E-1,4.5607683E-1,2.2928214E0,3.2717994E-1,1.8319838E-1,2.1258664E0,0E0,0E0,0E0,0E0,0E0,0E0,0E0,0E0,0E0,0E0,0E0,0E0,0E0,0E0,0E0,0E0,0E0,0E0,0E0,0E0,0E0,0E0,0E0,0E0,0E0,0E0,0E0,0E0,0E0,0E0,0E0,0E0],"parents":[2147483647,0,0,1,1,2,2,3,3,4,4,5,5,6,6,7,7,8,8,9,9,10,10,11,11,12,12,13,13,14,14,15,15,16,16,17,17,18,18,19,19,20,20,21,21,22,22,23,23,24,24,25,25,26,26,27,27,28,28,29,29,30,30],"right_children":[2,4,6,8,10,12,14,16,18,20,22,24,26,28,30,32,34,36,38,40,42,44,46,48,50,52,54,56,58,60,62,-1,-1,-1,-1,-1,-1,-1,-1,-1,-1,-1,-1,-1,-1,-1,-1,-1,-1,-1,-1,-1,-1,-1,-1,-1,-1,-1,-1,-1,-1,-1,-1],"split_conditions":[1.8E1,1.6E1,6E0,3E0,1E1,8E0,1.8E1,1.5E1,1.9E1,2E0,1.2E1,2E1,1E0,1.1E1,2E1,3E0,9E0,1.8E1,4E0,3E0,4E0,6E0,1.6E1,1E0,2E0,1.9E1,3E0,1E1,1.6E1,1.9E1,2.1E1,-4.403131E-3,2.4884127E-3,1.5662728E-3,2.5801126E-2,-9.6177537E-4,-1.4797756E-2,-1.1899128E-2,1.3950817E-2,3.6714578E-3,-1.8740095E-2,-9.390558E-3,1.0019669E-2,-2.2355655E-2,2.2654876E-3,-5.761392E-3,-1.5692411E-2,-2.1478316E-2,1.6096778E-2,1.133961E-2,-3.8236675E-3,-9.755655E-3,9.250577E-3,4.9753147E-3,-2.9994582E-3,6.0066185E-3,6.744374E-2,-1.2861465E-2,7.616692E-3,1.7858172E-2,-1.7090939E-2,1.3642256E-1,1.4319866E-2],"split_indices":[1,1,2,2,0,0,0,1,0,2,0,1,2,0,1,1,0,0,2,0,0,2,0,2,2,0,2,0,0,0,1,0,0,0,0,0,0,0,0,0,0,0,0,0,0,0,0,0,0,0,0,0,0,0,0,0,0,0,0,0,0,0,0],"split_type":[0,0,0,0,0,0,0,0,0,0,0,0,0,0,0,0,0,0,0,0,0,0,0,0,0,0,0,0,0,0,0,0,0,0,0,0,0,0,0,0,0,0,0,0,0,0,0,0,0,0,0,0,0,0,0,0,0,0,0,0,0,0,0],"sum_hessian":[2.688E3,2.002E3,6.86E2,1.775E3,2.27E2,5.88E2,9.8E1,7.78E2,9.97E2,1.09E2,1.18E2,2.36E2,3.52E2,8.7E1,1.1E1,7.31E2,4.7E1,9.47E2,5E1,3.1E1,7.8E1,2.1E1,9.7E1,7.9E1,1.57E2,5.9E1,2.93E2,5.4E1,3.3E1,4E0,7E0,1.48E2,5.83E2,1.9E1,2.8E1,8.95E2,5.2E1,1.4E1,3.6E1,9E0,2.2E1,3.3E1,4.5E1,1.8E1,3E0,4.6E1,5.1E1,1.5E1,6.4E1,5.7E1,1E2,5.4E1,5E0,1.22E2,1.71E2,4.8E1,6E0,2.2E1,1.1E1,2E0,2E0,1E0,6E0],"tree_param":{"num_deleted":"0","num_feature":"3","num_nodes":"63","size_leaf_vector":"1"}},{"base_weights":[1.9969289E-4,5.3328658E-3,-2.8594492E-2,1.6771454E-2,-3.7235024E-3,-3.9155547E-2,8.133067E-2,3.6507964E-2,-2.3355737E-4,-1.0987179E-2,1.3804733E-2,-2.9142592E-2,-2.1392637E-1,-6.581691E-2,1.4045732E-1,2.490503E-2,1.0662724E-1,-8.912568E-2,1.0171133E-2,-1.5981628E-3,-7.999904E-2,3.1148834E-2,-4.047581E-2,-4.394061E-2,1.1099E-1,-2.6075292E-2,3.8568072E-2,-1.9115144E-2,3.311018E-2,3.503105E-1,7.3810816E-2,9.2991954E-4,7.890194E-3,2.2196388E-3,2.7448002E-2,-2.837388E-3,-2.000978E-2,-1.5820017E-3,6.052643E-3,-1.9517634E-3,2.3711144E-3,-1.9807775E-2,-4.9220533E-3,7.753642E-3,-2.7763704E-4,-1.4261309E-3,-1.8363692E-2,-7.075462E-3,7.8929943E-4,-2.4520542E-2,2.6962165E-2,-1.8834474E-2,3.5965323E-2,1.2638034E-2,-2.947395E-3,1.0289059E-3,6.869023E-2,-1.2528643E-3,2.4827953E-2],"categories":[],"categories_nodes":[],"categories_segments":[],"categories_sizes":[],"default_left":[0,0,0,0,0,0,0,0,0,0,0,0,0,0,0,0,0,0,0,0,0,0,0,0,0,0,0,0,0,0,0,0,0,0,0,0,0,0,0,0,0,0,0,0,0,0,0,0,0,0,0,0,0,0,0,0,0,0,0],"id":11,"left_children":[1,3,5,7,9,11,13,15,17,19,21,23,25,27,29,31,33,35,37,39,41,43,45,47,49,-1,51,-1,53,55,57,-1,-1,-1,-1,-1,-1,-1,-1,-1,-1,-1,-1,-1,-1,-1,-1,-1,-1,-1,-1,-1,-1,-1,-1,-1,-1,-1,-1],"loss_changes":[3.9760157E-1,2.3656315E-1,4.7568116E-1,3.3864874E-1,1.6248395E-1,6.447553E-1,3.2245678E-1,3.7729073E-1,5.031245E-1,5.8432627E-1,3.533621E-1,7.3688775E-1,2.4652565E-1,1.4271785E-1,3.377788E-1,3.380183E-1,9.292564E-1,3.7860247E-1,6.3833934E-1,3.6101866E-1,3.8275337E-1,4.471484E-1,3.3889472E-1,4.4531584E-1,1.9872441E0,0E0,3.5917214E-1,0E0,4.4585545E-2,6.79623E-1,3.194448E-1,0E0,0E0,0E0,0E0,0E0,0E0,0E0,0E0,0E0,0E0,0E0,0E0,0E0,0E0,0E0,0E0,0E0,0E0,0E0,0E0,0E0,0E0,0E0,0E0,0E0,0E0,0E0,0E0],"parents":[2147483647,0,0,1,1,2,2,3,3,4,4,5,5,6,6,7,7,8,8,9,9,10,10,11,11,12,12,13,13,14,14,15,15,16,16,17,17,18,18,19,19,20,20,21,21,22,22,23,23,24,24,26,26,28,28,29,29,30,30],"right_children":[2,4,6,8,10,12,14,16,18,20,22,24,26,28,30,32,34,36,38,40,42,44,46,48,50,-1,52,-1,54,56,58,-1,-1,-1,-1,-1,-1,-1,-1,-1,-1,-1,-1,-1,-1,-1,-1,-1,-1,-1,-1,-1,-1,-1,-1,-1,-1,-1,-1],"split_conditions":[1.7E1,3E0,2.2E1,8E0,1.7E1,2.1E1,2E0,7E0,9E0,1.5E1,1.3E1,1.9E1,6E0,1.8E1,3E0,1.9E1,2E0,2E0,2E0,1E1,3E0,2E1,2.3E1,1.9E1,1.8E1,-2.6075292E-2,1.9E1,-1.9115144E-2,1.9E1,2.3E1,6E0,9.2991954E-4,7.890194E-3,2.2196388E-3,2.7448002E-2,-2.837388E-3,-2.000978E-2,-1.5820017E-3,6.052643E-3,-1.9517634E-3,2.3711144E-3,-1.9807775E-2,-4.9220533E-3,7.753642E-3,-2.7763704E-4,-1.4261309E-3,-1.8363692E-2,-7.075462E-3,7.8929943E-4,-2.4520542E-2,2.6962165E-2,-1.8834474E-2,3.5965323E-2,1.2638034E-2,-2.947395E-3,1.0289059E-3,6.869023E-2,-1.2528643E-3,2.4827953E-2],"split_indices":[0,2,1,0,1,1,2,0,0,1,0,1,2,0,2,1,2,2,2,0,0,1,1,0,0,0,0,0,0,1,2,0,0,0,0,0,0,0,0,0,0,0,0,0,0,0,0,0,0,0,0,0,0,0,0,0,0,0,0],"split_type":[0,0,0,0,0,0,0,0,0,0,0,0,0,0,0,0,0,0,0,0,0,0,0,0,0,0,0,0,0,0,0,0,0,0,0,0,0,0,0,0,0,0,0,0,0,0,0,0,0,0,0,0,0,0,0,0,0,0,0],"sum_hessian":[2.688E3,2.282E3,4.06E2,1.008E3,1.274E3,3.71E2,3.5E1,4.66E2,5.42E2,9.01E2,3.73E2,3.52E2,1.9E1,1E1,2.5E1,4.01E2,6.5E1,5.6E1,4.86E2,7.94E2,1.07E2,2.83E2,9E1,3.19E2,3.3E1,1.6E1,3E0,4E0,6E0,5E0,2E1,3.12E2,8.9E1,4.4E1,2.1E1,3.7E1,1.9E1,3.21E2,1.65E2,4.65E2,3.29E2,2.1E1,8.6E1,1.19E2,1.64E2,7.7E1,1.3E1,2.1E2,1.09E2,1E1,2.3E1,2E0,1E0,2E0,4E0,3E0,2E0,1.4E1,6E0],"tree_param":{"num_deleted":"0","num_feature":"3","num_nodes":"59","size_leaf_vector":"1"}},{"base_weights":[2.000159E-4,1.4056616E-2,-8.88151E-3,6.191E-3,6.47273E-2,-4.6986792E-2,-1.6221731E-3,-8.8099994E-2,1.0450557E-2,-6.3193E-2,8.7264344E-2,2.2080302E-2,-5.854537E-2,1.9638905E-2,-1.5846163E-2,-1.12351306E-1,6.804935E-2,2.1271287E-2,-1.6177138E-2,2.887402E-1,-1.8368748E-1,1.7230158E-1,3.7085626E-2,2.2985546E-2,-1.63661E-2,-4.8841424E-2,-1.1105137E-1,3.9913617E-3,6.113044E-2,-6.381991E-2,-6.452101E-3,-3.4245003E-3,-1.8421588E-2,2.0732343E-2,-1.4033253E-2,5.80557E-3,4.7328245E-4,-8.063695E-3,1.358094E-3,-2.8221672E-2,6.447729E-2,1.6044388E-3,-2.1138802E-2,-6.980547E-3,2.2653569E-2,5.267698E-3,-2.645236E-2,-8.491459E-3,8.272932E-3,-6.509612E-3,6.5740553E-4,-1.5459718E-2,-2.881606E-3,-8.9469453E-4,1.0108138E-2,-4.9697625E-4,1.2729691E-2,-7.536206E-3,-4.8398465E-4,-1.2299593E-2,-1.1206443E-4],"categories":[],"categories_nodes":[],"categories_segments":[],"categories_sizes":[],"default_left":[0,0,0,0,0,0,0,0,0,0,0,0,0,0,0,0,0,0,0,0,0,0,0,0,0,0,0,0,0,0,0,0,0,0,0,0,0,0,0,0,0,0,0,0,0,0,0,0,0,0,0,0,0,0,0,0,0,0,0,0,0],"id":12,"left_children":[1,3,5,7,9,11,13,15,17,19,21,23,25,27,29,31,33,35,37,39,41,43,45,-1,47,49,51,53,55,57,59,-1,-1,-1,-1,-1,-1,-1,-1,-1,-1,-1,-1,-1,-1,-1,-1,-1,-1,-1,-1,-1,-1,-1,-1,-1,-1,-1,-1,-1,-1],"loss_changes":[3.3850613E-1,4.2406163E-1,4.494298E-1,3.7163246E-1,4.177757E-1,2.0885521E-1,4.1341332E-1,1.5911853E-1,2.55052E-1,9.8597014E-1,5.1419145E-1,3.0731368E-1,1.0819799E-1,3.5553992E-1,3.686856E-1,1.9014919E-1,2.032274E-1,3.8238215E-1,4.921543E-1,1.4016414E0,9.744716E-2,6.0668397E-1,3.807289E-1,0E0,2.3118868E-1,1.7157266E-1,1.1729923E-1,5.021204E-1,6.5667516E-1,9.085673E-2,4.261071E-1,0E0,0E0,0E0,0E0,0E0,0E0,0E0,0E0,0E0,0E0,0E0,0E0,0E0,0E0,0E0,0E0,0E0,0E0,0E0,0E0,0E0,0E0,0E0,0E0,0E0,0E0,0E0,0E0,0E0,0E0],"parents":[2147483647,0,0,1,1,2,2,3,3,4,4,5,5,6,6,7,7,8,8,9,9,10,10,11,11,12,12,13,13,14,14,15,15,16,16,17,17,18,18,19,19,20,20,21,21,22,22,24,24,25,25,26,26,27,27,28,28,29,29,30,30],"right_children":[2,4,6,8,10,12,14,16,18,20,22,24,26,28,30,32,34,36,38,40,42,44,46,-1,48,50,52,54,56,58,60,-1,-1,-1,-1,-1,-1,-1,-1,-1,-1,-1,-1,-1,-1,-1,-1,-1,-1,-1,-1,-1,-1,-1,-1,-1,-1,-1,-1,-1,-1],"split_conditions":[8E0,7E0,1E1,1E0,1E0,1E0,1.4E1,6E0,5E0,5E0,3E0,3E0,6E0,5E0,1.5E1,3E0,4E0,8E0,8E0,2E0,8E0,4E0,2.3E1,2.2985546E-2,1.4E1,5E0,1.4E1,2.1E1,1.2E1,2E1,1E0,-3.4245003E-3,-1.8421588E-2,2.0732343E-2,-1.4033253E-2,5.80557E-3,4.7328245E-4,-8.063695E-3,1.358094E-3,-2.8221672E-2,6.447729E-2,1.6044388E-3,-2.1138802E-2,-6.980547E-3,2.2653569E-2,5.267698E-3,-2.645236E-2,-8.491459E-3,8.272932E-3,-6.509612E-3,6.5740553E-4,-1.5459718E-2,-2.881606E-3,-8.9469453E-4,1.0108138E-2,-4.9697625E-4,1.2729691E-2,-7.536206E-3,-4.8398465E-4,-1.2299593E-2,-1.1206443E-4],"split_indices":[0,0,0,1,2,2,0,2,2,1,2,1,2,2,0,2,0,1,1,1,1,1,1,0,1,2,1,1,1,1,1,0,0,0,0,0,0,0,0,0,0,0,0,0,0,0,0,0,0,0,0,0,0,0,0,0,0,0,0,0,0],"split_type":[0,0,0,0,0,0,0,0,0,0,0,0,0,0,0,0,0,0,0,0,0,0,0,0,0,0,0,0,0,0,0,0,0,0,0,0,0,0,0,0,0,0,0,0,0,0,0,0,0,0,0,0,0,0,0,0,0,0,0,0,0],"sum_hessian":[2.688E3,1.064E3,1.624E3,9.22E2,1.42E2,2.59E2,1.365E3,3.9E1,8.83E2,2.1E1,1.21E2,3.7E1,2.22E2,5.47E2,8.18E2,3.4E1,5E0,6.28E2,2.55E2,5E0,1.6E1,4.4E1,7.7E1,5E0,3.2E1,1.89E2,3.3E1,3.98E2,1.49E2,1.33E2,6.85E2,1.7E1,1.7E1,3E0,2E0,1.94E2,4.34E2,8E1,1.75E2,2E0,3E0,2E0,1.4E1,8E0,3.6E1,7.4E1,3E0,1.9E1,1.3E1,1.46E2,4.3E1,2.1E1,1.2E1,3.52E2,4.6E1,7.5E1,7.4E1,1.11E2,2.2E1,2.9E1,6.56E2],"tree_param":{"num_deleted":"0","num_feature":"3","num_nodes":"61","size_leaf_vector":"1"}},{"base_weights":[1.782349E-4,4.6613477E-3,-2.496949E-2,1.4550945E-2,-3.1686644E-3,-1.12390235E-1,-1.3244032E-2,-6.484499E-2,1.7895302E-2,2.0328468E-2,-9.561036E-3,-1.6954379E-1,1.8041125E-3,-2.3048483E-2,7.563627E-2,-2.800663E-2,-1.5153714E-1,6.5704365E-3,4.021223E-2,-1.5911847E-2,8.9508556E-2,-9.0808064E-2,6.5110344E-4,-1.0579079E-2,-1.9790055E-2,-1.5213204E-2,7.862184E-2,-1.1873422E-2,-1.9287449E-1,-5.999011E-2,1.3010757E-1,-8.475895E-3,4.2907367E-3,3.0444206E-3,-2.1558028E-2,2.7002504E-3,-2.958657E-3,3.1399576E-3,1.6671037E-2,-3.5210426E-3,3.9448193E-3,1.388249E-2,-8.853516E-3,-1.5832543E-2,-2.288209E-3,7.5527356E-4,-2.9578642E-3,2.106718E-3,3.5586156E-2,-2.5771798E-3,1.0007159E-2,-2.3610601E-2,3.907802E-3,-1.7576968E-2,3.1279586E-3,3.2699272E-2,6.765907E-3],"categories":[],"categories_nodes":[],"categories_segments":[],"categories_sizes":[],"default_left":[0,0,0,0,0,0,0,0,0,0,0,0,0,0,0,0,0,0,0,0,0,0,0,0,0,0,0,0,0,0,0,0,0,0,0,0,0,0,0,0,0,0,0,0,0,0,0,0,0,0,0,0,0,0,0,0,0],"id":13,"left_children":[1,3,5,7,9,11,13,15,17,19,21,23,25,27,29,31,33,35,37,39,41,43,45,-1,-1,-1,47,49,51,53,55,-1,-1,-1,-1,-1,-1,-1,-1,-1,-1,-1,-1,-1,-1,-1,-1,-1,-1,-1,-1,-1,-1,-1,-1,-1,-1],"loss_changes":[3.032745E-1,1.7683172E-1,4.1570613E-1,2.6907855E-1,1.9170241E-1,3.135833E-1,3.1545544E-1,1.266934E-1,2.4463713E-1,6.8586475E-1,8.322542E-1,3.691441E-2,2.129863E-1,6.145002E-1,2.73764E-1,1.24372795E-1,1.4641908E-1,4.7656187E-1,3.5818523E-1,1.9369562E-1,8.376545E-1,5.1002973E-1,1.8632542E-1,0E0,0E0,0E0,1.8398026E-1,4.7867033E-1,2.0977968E-1,1.21736825E-1,2.9755068E-1,0E0,0E0,0E0,0E0,0E0,0E0,0E0,0E0,0E0,0E0,0E0,0E0,0E0,0E0,0E0,0E0,0E0,0E0,0E0,0E0,0E0,0E0,0E0,0E0,0E0,0E0],"parents":[2147483647,0,0,1,1,2,2,3,3,4,4,5,5,6,6,7,7,8,8,9,9,10,10,11,11,12,12,13,13,14,14,15,15,16,16,17,17,18,18,19,19,20,20,21,21,22,22,26,26,27,27,28,28,29,29,30,30],"right_children":[2,4,6,8,10,12,14,16,18,20,22,24,26,28,30,32,34,36,38,40,42,44,46,-1,-1,-1,48,50,52,54,56,-1,-1,-1,-1,-1,-1,-1,-1,-1,-1,-1,-1,-1,-1,-1,-1,-1,-1,-1,-1,-1,-1,-1,-1,-1,-1],"split_conditions":[1.7E1,3E0,3E0,1E0,5E0,1.9E1,2.2E1,2E0,2E0,1.1E1,7E0,1E0,1E0,2.1E1,2E0,9E0,5E0,1.6E1,1.6E1,6E0,6E0,5E0,1.4E1,-1.0579079E-2,-1.9790055E-2,-1.5213204E-2,6E0,1.9E1,6E0,1.8E1,3E0,-8.475895E-3,4.2907367E-3,3.0444206E-3,-2.1558028E-2,2.7002504E-3,-2.958657E-3,3.1399576E-3,1.6671037E-2,-3.5210426E-3,3.9448193E-3,1.388249E-2,-8.853516E-3,-1.5832543E-2,-2.288209E-3,7.5527356E-4,-2.9578642E-3,2.106718E-3,3.5586156E-2,-2.5771798E-3,1.0007159E-2,-2.3610601E-2,3.907802E-3,-1.7576968E-2,3.1279586E-3,3.2699272E-2,6.765907E-3],"split_indices":[0,2,1,1,1,0,1,2,2,0,1,1,1,1,2,0,0,1,0,2,2,2,0,0,0,0,2,1,2,0,2,0,0,0,0,0,0,0,0,0,0,0,0,0,0,0,0,0,0,0,0,0,0,0,0,0,0],"split_type":[0,0,0,0,0,0,0,0,0,0,0,0,0,0,0,0,0,0,0,0,0,0,0,0,0,0,0,0,0,0,0,0,0,0,0,0,0,0,0,0,0,0,0,0,0,0,0,0,0,0,0,0,0,0,0,0,0],"sum_hessian":[2.688E3,2.282E3,4.06E2,1.008E3,1.274E3,4.7E1,3.59E2,4E1,9.68E2,2.72E2,1.002E3,3.1E1,1.6E1,3.24E2,3.5E1,2.9E1,1.1E1,6.43E2,3.25E2,1.79E2,9.3E1,1.11E2,8.91E2,1.1E1,2E1,5E0,1.1E1,3.05E2,1.9E1,1E1,2.5E1,1.6E1,1.3E1,3E0,8E0,4.11E2,2.32E2,3.05E2,2E1,1.33E2,4.6E1,7.3E1,2E1,5.5E1,5.6E1,7.26E2,1.65E2,1E1,1E0,2.72E2,3.3E1,1.6E1,3E0,4E0,6E0,5E0,2E1],"tree_param":{"num_deleted":"0","num_feature":"3","num_nodes":"57","size_leaf_vector":"1"}},{"base_weights":[1.555179E-4,1.2525986E-2,-7.951992E-3,5.4089413E-3,5.837568E-2,-4.2480323E-2,-1.3741603E-3,-7.5600035E-2,9.068388E-3,-5.638259E-2,7.85913E-2,-3.36392E-2,-1.3659613E-1,1.6434671E-2,-1.3288526E-2,-9.652694E-2,5.9073582E-2,1.8861668E-2,-1.5029435E-2,2.6552123E-1,-1.6667908E-1,1.5437748E-1,3.3860926E-2,-4.122643E-2,1.2737125E-1,-4.895663E-2,-2.1978503E-2,2.183178E-3,5.423408E-2,-5.7268832E-2,-4.67825E-3,-2.4199001E-3,-1.6349228E-2,1.8881558E-2,-1.3360691E-2,5.313665E-3,3.4536613E-4,-2.3795187E-3,1.6519045E-2,-2.6147706E-2,5.943897E-2,1.3174614E-3,-1.9153789E-2,6.366838E-3,3.0003551E-2,-5.967666E-3,8.177735E-3,4.615733E-3,-5.6174505E-3,-9.372249E-3,5.3771593E-2,-1.0623517E-2,1.5829071E-2,-4.5914302E-4,1.6463732E-2,6.90642E-3,-2.1763366E-2,-9.727888E-3,-3.9208396E-3,4.353177E-3,-1.6898167E-3],"categories":[],"categories_nodes":[],"categories_segments":[],"categories_sizes":[],"default_left":[0,0,0,0,0,0,0,0,0,0,0,0,0,0,0,0,0,0,0,0,0,0,0,0,0,0,0,0,0,0,0,0,0,0,0,0,0,0,0,0,0,0,0,0,0,0,0,0,0,0,0,0,0,0,0,0,0,0,0,0,0],"id":14,"left_children":[1,3,5,7,9,11,13,15,17,19,21,23,25,27,29,31,33,35,37,39,41,43,45,47,49,51,-1,53,55,57,59,-1,-1,-1,-1,-1,-1,-1,-1,-1,-1,-1,-1,-1,-1,-1,-1,-1,-1,-1,-1,-1,-1,-1,-1,-1,-1,-1,-1,-1,-1],"loss_changes":[2.6978934E-1,3.4720898E-1,3.6901414E-1,2.7430707E-1,3.3617833E-1,2.1174824E-1,2.9005754E-1,1.18434265E-1,2.0890465E-1,8.253639E-1,4.0834582E-1,2.9721913E-1,1.4963403E-1,2.950881E-1,3.098731E-1,1.6556492E-1,1.7521955E-1,3.3199716E-1,4.0835E-1,1.195298E0,7.852951E-2,5.754601E-1,3.5447514E-1,3.017169E-1,1.0483671E0,1.5926595E-1,0E0,4.3988058E-1,6.198055E-1,9.301409E-2,4.048736E-1,0E0,0E0,0E0,0E0,0E0,0E0,0E0,0E0,0E0,0E0,0E0,0E0,0E0,0E0,0E0,0E0,0E0,0E0,0E0,0E0,0E0,0E0,0E0,0E0,0E0,0E0,0E0,0E0,0E0,0E0],"parents":[2147483647,0,0,1,1,2,2,3,3,4,4,5,5,6,6,7,7,8,8,9,9,10,10,11,11,12,12,13,13,14,14,15,15,16,16,17,17,18,18,19,19,20,20,21,21,22,22,23,23,24,24,25,25,27,27,28,28,29,29,30,30],"right_children":[2,4,6,8,10,12,14,16,18,20,22,24,26,28,30,32,34,36,38,40,42,44,46,48,50,52,-1,54,56,58,60,-1,-1,-1,-1,-1,-1,-1,-1,-1,-1,-1,-1,-1,-1,-1,-1,-1,-1,-1,-1,-1,-1,-1,-1,-1,-1,-1,-1,-1,-1],"split_conditions":[8E0,7E0,1E1,1E0,1E0,2.2E1,1.4E1,6E0,5E0,5E0,3E0,2.1E1,9E0,5E0,1.5E1,3E0,4E0,8E0,2.3E1,2E0,8E0,1.6E1,8E0,1E0,5E0,5E0,-2.1978503E-2,2.3E1,2.3E1,8E0,1.6E1,-2.4199001E-3,-1.6349228E-2,1.8881558E-2,-1.3360691E-2,5.313665E-3,3.4536613E-4,-2.3795187E-3,1.6519045E-2,-2.6147706E-2,5.943897E-2,1.3174614E-3,-1.9153789E-2,6.366838E-3,3.0003551E-2,-5.967666E-3,8.177735E-3,4.615733E-3,-5.6174505E-3,-9.372249E-3,5.3771593E-2,-1.0623517E-2,1.5829071E-2,-4.5914302E-4,1.6463732E-2,6.90642E-3,-2.1763366E-2,-9.727888E-3,-3.9208396E-3,4.353177E-3,-1.6898167E-3],"split_indices":[0,0,0,1,2,1,0,2,2,1,2,1,0,2,0,2,0,1,1,1,1,1,1,2,2,2,0,1,1,1,0,0,0,0,0,0,0,0,0,0,0,0,0,0,0,0,0,0,0,0,0,0,0,0,0,0,0,0,0,0,0],"split_type":[0,0,0,0,0,0,0,0,0,0,0,0,0,0,0,0,0,0,0,0,0,0,0,0,0,0,0,0,0,0,0,0,0,0,0,0,0,0,0,0,0,0,0,0,0,0,0,0,0,0,0,0,0,0,0,0,0,0,0,0,0],"sum_hessian":[2.688E3,1.064E3,1.624E3,9.22E2,1.42E2,2.59E2,1.365E3,3.9E1,8.83E2,2.1E1,1.21E2,2.38E2,2.1E1,5.47E2,8.18E2,3.4E1,5E0,6.28E2,2.55E2,5E0,1.6E1,4.4E1,7.7E1,2.28E2,1E1,1.1E1,1E1,3.98E2,1.49E2,1.33E2,6.85E2,1.7E1,1.7E1,3E0,2E0,1.94E2,4.34E2,2.44E2,1.1E1,2E0,3E0,2E0,1.4E1,2.8E1,1.6E1,2.6E1,5.1E1,3.3E1,1.95E2,7E0,3E0,9E0,2E0,3.83E2,1.5E1,1.42E2,7E0,4E1,9.3E1,1.38E2,5.47E2],"tree_param":{"num_deleted":"0","num_feature":"3","num_nodes":"61","size_leaf_vector":"1"}},{"base_weights":[1.687371E-4,-5.5016335E-3,1.6700882E-2,2.5501873E-3,-6.819695E-2,5.9091803E-3,8.073736E-2,-6.628815E-3,2.302307E-2,-2.1423178E-2,-1.10860124E-1,3.774472E-2,-1.0064128E-2,5.3340737E-2,2.749178E-1,9.517709E-4,-5.0727844E-2,-3.0620836E-3,5.72316E-2,-1.11563735E-1,1.5360633E-2,-1.7719232E-1,-9.4838E-2,-7.944253E-2,1.02961645E-1,3.1358942E-2,-5.359223E-2,1.2000377E-1,-5.6065362E-2,-6.7616166E-3,4.1660273E-1,5.9989555E-4,-5.2192784E-3,-8.47813E-3,1.8792087E-3,6.7600496E-3,-5.2970094E-3,1.4851351E-2,2.6314585E-3,3.449931E-3,-1.7021881E-2,-8.164208E-3,8.672438E-3,-2.0580499E-2,3.0159057E-4,-7.5119585E-3,-2.0778278E-2,-9.887453E-3,2.7076205E-2,1.8995166E-2,7.040184E-3,6.519217E-3,-3.1197528E-4,-2.7941845E-3,-1.4737922E-2,4.881393E-3,6.011892E-2,-1.2037395E-2,7.186486E-3,1.8193489E-2,-1.9320425E-2,1.2784307E-1,1.1085154E-2],"categories":[],"categories_nodes":[],"categories_segments":[],"categories_sizes":[],"default_left":[0,0,0,0,0,0,0,0,0,0,0,0,0,0,0,0,0,0,0,0,0,0,0,0,0,0,0,0,0,0,0,0,0,0,0,0,0,0,0,0,0,0,0,0,0,0,0,0,0,0,0,0,0,0,0,0,0,0,0,0,0,0,0],"id":15,"left_children":[1,3,5,7,9,11,13,15,17,19,21,23,25,27,29,31,33,35,37,39,41,43,45,47,49,51,53,55,57,59,61,-1,-1,-1,-1,-1,-1,-1,-1,-1,-1,-1,-1,-1,-1,-1,-1,-1,-1,-1,-1,-1,-1,-1,-1,-1,-1,-1,-1,-1,-1,-1,-1],"loss_changes":[2.5216785E-1,1.0113113E0,4.7428286E-1,3.3389968E-1,4.5260298E-1,2.9989746E-1,5.120047E-1,4.102301E-1,4.9095944E-1,3.6644214E-1,1.09666586E-1,1.5137703E0,7.1028626E-1,6.4854217E-1,4.8173374E-1,2.814185E-1,4.2772412E-1,1.1074156E0,6.67767E-1,2.8002727E-1,5.53956E-1,1.140579E-1,2.026465E-1,5.0993884E-1,3.463391E-1,2.3584154E-1,4.5777106E-1,1.8547065E0,2.8836903E-1,2.1105593E-1,1.9663231E0,0E0,0E0,0E0,0E0,0E0,0E0,0E0,0E0,0E0,0E0,0E0,0E0,0E0,0E0,0E0,0E0,0E0,0E0,0E0,0E0,0E0,0E0,0E0,0E0,0E0,0E0,0E0,0E0,0E0,0E0,0E0,0E0],"parents":[2147483647,0,0,1,1,2,2,3,3,4,4,5,5,6,6,7,7,8,8,9,9,10,10,11,11,12,12,13,13,14,14,15,15,16,16,17,17,18,18,19,19,20,20,21,21,22,22,23,23,24,24,25,25,26,26,27,27,28,28,29,29,30,30],"right_children":[2,4,6,8,10,12,14,16,18,20,22,24,26,28,30,32,34,36,38,40,42,44,46,48,50,52,54,56,58,60,62,-1,-1,-1,-1,-1,-1,-1,-1,-1,-1,-1,-1,-1,-1,-1,-1,-1,-1,-1,-1,-1,-1,-1,-1,-1,-1,-1,-1,-1,-1,-1,-1],"split_conditions":[1.8E1,1.6E1,6E0,1.1E1,1E1,2E1,1.8E1,1.7E1,1.2E1,2E0,1.2E1,2E0,3E0,1.1E1,2E1,1E1,1.9E1,5E0,1.4E1,3E0,4E0,6E0,6E0,1.9E1,3E0,2.2E1,1.6E1,1E1,1.6E1,1.9E1,2.1E1,5.9989555E-4,-5.2192784E-3,-8.47813E-3,1.8792087E-3,6.7600496E-3,-5.2970094E-3,1.4851351E-2,2.6314585E-3,3.449931E-3,-1.7021881E-2,-8.164208E-3,8.672438E-3,-2.0580499E-2,3.0159057E-4,-7.5119585E-3,-2.0778278E-2,-9.887453E-3,2.7076205E-2,1.8995166E-2,7.040184E-3,6.519217E-3,-3.1197528E-4,-2.7941845E-3,-1.4737922E-2,4.881393E-3,6.011892E-2,-1.2037395E-2,7.186486E-3,1.8193489E-2,-1.9320425E-2,1.2784307E-1,1.1085154E-2],"split_indices":[1,1,2,1,0,1,0,0,0,2,0,2,2,0,1,1,0,0,0,0,0,2,2,0,2,1,0,0,0,1,1,0,0,0,0,0,0,0,0,0,0,0,0,0,0,0,0,0,0,0,0,0,0,0,0,0,0,0,0,0,0,0,0],"split_type":[0,0,0,0,0,0,0,0,0,0,0,0,0,0,0,0,0,0,0,0,0,0,0,0,0,0,0,0,0,0,0,0,0,0,0,0,0,0,0,0,0,0,0,0,0,0,0,0,0,0,0,0,0,0,0,0,0,0,0,0,0,0,0],"sum_hessian":[2.688E3,2.002E3,6.86E2,1.775E3,2.27E2,5.88E2,9.8E1,1.226E3,5.49E2,1.09E2,1.18E2,1.96E2,3.92E2,8.7E1,1.1E1,1.047E3,1.79E2,3.12E2,2.37E2,3.1E1,7.8E1,2.1E1,9.7E1,7E1,1.26E2,2.01E2,1.91E2,5.4E1,3.3E1,4E0,7E0,9.57E2,9E1,1.2E2,5.9E1,1.29E2,1.83E2,5.9E1,1.78E2,9E0,2.2E1,3.3E1,4.5E1,1.8E1,3E0,8.4E1,1.3E1,6.7E1,3E0,3.3E1,9.3E1,1.01E2,1E2,1.51E2,4E1,4.8E1,6E0,2.2E1,1.1E1,2E0,2E0,1E0,6E0],"tree_param":{"num_deleted":"0","num_feature":"3","num_nodes":"63","size_leaf_vector":"1"}},{"base_weights":[2.172962E-4,1.0361897E-2,-7.758417E-3,-3.727645E-2,1.7203357E-2,-1.8984895E-3,-3.0268755E-2,4.4550806E-2,-6.771353E-2,5.3214703E-2,5.802305E-3,2.446294E-2,-7.473024E-3,-4.9917478E-2,4.068061E-2,-4.7549456E-2,1.18696645E-1,3.4943952E-3,-1.0144017E-1,-5.313997E-3,7.7521004E-2,-2.7357953E-2,2.2848653E-2,1.0764119E-2,2.1449907E-1,-5.2784953E-2,8.2864834E-4,-1.53915975E-2,-1.13169774E-1,-2.1503454E-2,2.021818E-1,8.810486E-3,-2.9268611E-2,-1.37621155E-2,2.39437E-2,-1.530167E-2,3.3674145E-3,-1.4517292E-2,-5.8470443E-3,5.365982E-3,-6.259603E-3,3.142698E-2,3.4389414E-3,-9.499387E-3,1.928575E-4,-5.6077456E-3,3.402447E-3,-3.3556267E-3,5.921344E-3,2.9052792E-2,-4.8205005E-3,-2.6558253E-3,-1.4379728E-2,1.9752914E-3,-7.8918313E-4,-5.236422E-3,1.4533616E-2,-1.829949E-2,-8.9238E-3,4.377858E-2,-1.3300075E-2,-2.1415548E-2,3.274821E-2],"categories":[],"categories_nodes":[],"categories_segments":[],"categories_sizes":[],"default_left":[0,0,0,0,0,0,0,0,0,0,0,0,0,0,0,0,0,0,0,0,0,0,0,0,0,0,0,0,0,0,0,0,0,0,0,0,0,0,0,0,0,0,0,0,0,0,0,0,0,0,0,0,0,0,0,0,0,0,0,0,0,0,0],"id":16,"left_children":[1,3,5,7,9,11,13,15,17,19,21,23,25,27,29,31,33,35,37,39,41,43,45,47,49,51,53,55,57,59,61,-1,-1,-1,-1,-1,-1,-1,-1,-1,-1,-1,-1,-1,-1,-1,-1,-1,-1,-1,-1,-1,-1,-1,-1,-1,-1,-1,-1,-1,-1,-1,-1],"loss_changes":[2.1764852E-1,3.8652563E-1,1.9859743E-1,3.741135E-1,4.250388E-1,1.7593823E-1,4.3558472E-1,2.8562686E-1,2.6212928E-1,3.546434E-1,4.4605097E-1,5.417747E-1,3.716946E-1,5.311153E-1,6.8725806E-1,6.5761006E-1,7.447533E-1,1.7519747E-1,1.3057137E-1,2.533413E-1,1.7863904E0,5.310433E-1,4.614632E-1,4.2285633E-1,2.936281E-1,3.6138475E-1,1.3811985E-1,9.524721E-1,1.2737942E-1,2.6187015E0,1.0613086E0,0E0,0E0,0E0,0E0,0E0,0E0,0E0,0E0,0E0,0E0,0E0,0E0,0E0,0E0,0E0,0E0,0E0,0E0,0E0,0E0,0E0,0E0,0E0,0E0,0E0,0E0,0E0,0E0,0E0,0E0,0E0,0E0],"parents":[2147483647,0,0,1,1,2,2,3,3,4,4,5,5,6,6,7,7,8,8,9,9,10,10,11,11,12,12,13,13,14,14,15,15,16,16,17,17,18,18,19,19,20,20,21,21,22,22,23,23,24,24,25,25,26,26,27,27,28,28,29,29,30,30],"right_children":[2,4,6,8,10,12,14,16,18,20,22,24,26,28,30,32,34,36,38,40,42,44,46,48,50,52,54,56,58,60,62,-1,-1,-1,-1,-1,-1,-1,-1,-1,-1,-1,-1,-1,-1,-1,-1,-1,-1,-1,-1,-1,-1,-1,-1,-1,-1,-1,-1,-1,-1,-1,-1],"split_conditions":[3E0,3E0,1.6E1,6E0,8E0,4E0,1.9E1,3E0,1E0,6E0,1E0,1.5E1,7E0,1.3E1,6E0,2E0,1E0,8E0,2E0,3E0,8E0,1.3E1,1E1,2E0,3E0,6E0,5E0,1.1E1,4E0,2E1,2E1,8.810486E-3,-2.9268611E-2,-1.37621155E-2,2.39437E-2,-1.530167E-2,3.3674145E-3,-1.4517292E-2,-5.8470443E-3,5.365982E-3,-6.259603E-3,3.142698E-2,3.4389414E-3,-9.499387E-3,1.928575E-4,-5.6077456E-3,3.402447E-3,-3.3556267E-3,5.921344E-3,2.9052792E-2,-4.8205005E-3,-2.6558253E-3,-1.4379728E-2,1.9752914E-3,-7.8918313E-4,-5.236422E-3,1.4533616E-2,-1.829949E-2,-8.9238E-3,4.377858E-2,-1.3300075E-2,-2.1415548E-2,3.274821E-2],"split_indices":[2,1,0,0,1,1,1,0,2,0,2,0,1,1,2,2,2,0,2,0,0,1,1,1,1,2,0,1,2,1,1,0,0,0,0,0,0,0,0,0,0,0,0,0,0,0,0,0,0,0,0,0,0,0,0,0,0,0,0,0,0,0,0],"split_type":[0,0,0,0,0,0,0,0,0,0,0,0,0,0,0,0,0,0,0,0,0,0,0,0,0,0,0,0,0,0,0,0,0,0,0,0,0,0,0,0,0,0,0,0,0,0,0,0,0,0,0,0,0,0,0,0,0,0,0,0,0,0,0],"sum_hessian":[2.688E3,1.183E3,1.505E3,1.48E2,1.035E3,1.195E3,3.1E2,4E1,1.08E2,2.48E2,7.87E2,2.08E2,9.87E2,2.43E2,6.7E1,1.8E1,2.2E1,3.5E1,7.3E1,7.3E1,1.75E2,2.67E2,5.2E2,1.95E2,1.3E1,1.52E2,8.35E2,1.58E2,8.5E1,4.9E1,1.8E1,1.2E1,6E0,7E0,1.5E1,5E0,3E1,3.5E1,3.8E1,3.6E1,3.7E1,2.6E1,1.49E2,8E1,1.87E2,6.4E1,4.56E2,1.02E2,9.3E1,1E1,3E0,1.19E2,3.3E1,2.63E2,5.72E2,1.29E2,2.9E1,2E1,6.5E1,9E0,4E1,4E0,1.4E1],"tree_param":{"num_deleted":"0","num_feature":"3","num_nodes":"63","size_leaf_vector":"1"}},{"base_weights":[2.0104244E-4,-4.5899274E-3,1.4169182E-2,2.685268E-3,-6.1239738E-2,4.5603826E-3,7.119356E-2,-5.270144E-3,2.0428186E-2,-1.22010045E-1,-3.410036E-2,3.1486336E-2,-8.948456E-3,4.6702363E-2,2.448629E-1,1.0810379E-3,-4.2218857E-2,-9.768707E-3,4.65637E-2,3.025794E-2,-1.4497185E-1,2.071593E-2,-1.09679684E-1,-7.29381E-2,8.961742E-2,4.2697787E-2,-3.5231985E-2,1.0875374E-1,-5.5048462E-2,5.8249086E-3,3.6365378E-1,5.638602E-4,-4.691047E-3,-7.2898953E-3,2.0356313E-3,5.9396825E-3,-8.049115E-3,1.7418854E-2,3.1994868E-3,1.7259127E-2,-2.2638984E-2,-1.6796794E-2,6.557531E-4,5.1222676E-3,-8.006597E-3,-5.872232E-3,-1.9293917E-2,-9.083289E-3,2.4950786E-2,1.4936623E-2,4.6200035E-3,3.4176115E-2,1.2931738E-3,-2.063482E-2,-2.687748E-3,4.3451223E-3,5.5033512E-2,-1.348257E-2,2.335495E-3,1.757551E-2,-1.6604692E-2,1.19813494E-1,7.3280074E-3],"categories":[],"categories_nodes":[],"categories_segments":[],"categories_sizes":[],"default_left":[0,0,0,0,0,0,0,0,0,0,0,0,0,0,0,0,0,0,0,0,0,0,0,0,0,0,0,0,0,0,0,0,0,0,0,0,0,0,0,0,0,0,0,0,0,0,0,0,0,0,0,0,0,0,0,0,0,0,0,0,0,0,0],"id":17,"left_children":[1,3,5,7,9,11,13,15,17,19,21,23,25,27,29,31,33,35,37,39,41,43,45,47,49,51,53,55,57,59,61,-1,-1,-1,-1,-1,-1,-1,-1,-1,-1,-1,-1,-1,-1,-1,-1,-1,-1,-1,-1,-1,-1,-1,-1,-1,-1,-1,-1,-1,-1,-1,-1],"loss_changes":[1.8001543E-1,8.2567775E-1,3.7610722E-1,2.50794E-1,3.718726E-1,2.1452364E-1,4.0964806E-1,2.8798324E-1,4.3452114E-1,2.4913096E-1,6.610056E-1,1.2023869E0,5.349805E-1,5.6159925E-1,3.3862817E-1,2.2948761E-1,3.4705013E-1,1.257019E0,5.429336E-1,4.043682E-1,2.1366084E-1,2.9003227E-1,2.7292997E-1,4.3234086E-1,3.225547E-1,1.1795378E0,3.6757734E-1,1.5620879E0,2.158123E-1,1.7521466E-1,1.8506916E0,0E0,0E0,0E0,0E0,0E0,0E0,0E0,0E0,0E0,0E0,0E0,0E0,0E0,0E0,0E0,0E0,0E0,0E0,0E0,0E0,0E0,0E0,0E0,0E0,0E0,0E0,0E0,0E0,0E0,0E0,0E0,0E0],"parents":[2147483647,0,0,1,1,2,2,3,3,4,4,5,5,6,6,7,7,8,8,9,9,10,10,11,11,12,12,13,13,14,14,15,15,16,16,17,17,18,18,19,19,20,20,21,21,22,22,23,23,24,24,25,25,26,26,27,27,28,28,29,29,30,30],"right_children":[2,4,6,8,10,12,14,16,18,20,22,24,26,28,30,32,34,36,38,40,42,44,46,48,50,52,54,56,58,60,62,-1,-1,-1,-1,-1,-1,-1,-1,-1,-1,-1,-1,-1,-1,-1,-1,-1,-1,-1,-1,-1,-1,-1,-1,-1,-1,-1,-1,-1,-1,-1,-1],"split_conditions":[1.8E1,1.6E1,6E0,1.1E1,2E0,2E1,1.8E1,1.7E1,1E1,3E0,5E0,2E0,2E0,1.1E1,2E1,1E1,1.9E1,5E0,1.1E1,1E0,1.8E1,1.6E1,1.3E1,1.9E1,8E0,2E0,1E0,1E1,2.1E1,1.9E1,2.1E1,5.638602E-4,-4.691047E-3,-7.2898953E-3,2.0356313E-3,5.9396825E-3,-8.049115E-3,1.7418854E-2,3.1994868E-3,1.7259127E-2,-2.2638984E-2,-1.6796794E-2,6.557531E-4,5.1222676E-3,-8.006597E-3,-5.872232E-3,-1.9293917E-2,-9.083289E-3,2.4950786E-2,1.4936623E-2,4.6200035E-3,3.4176115E-2,1.2931738E-3,-2.063482E-2,-2.687748E-3,4.3451223E-3,5.5033512E-2,-1.348257E-2,2.335495E-3,1.757551E-2,-1.6604692E-2,1.19813494E-1,7.3280074E-3],"split_indices":[1,1,2,1,2,1,0,0,0,0,2,2,2,0,1,1,0,0,0,2,0,0,0,0,0,0,0,0,1,1,1,0,0,0,0,0,0,0,0,0,0,0,0,0,0,0,0,0,0,0,0,0,0,0,0,0,0,0,0,0,0,0,0],"split_type":[0,0,0,0,0,0,0,0,0,0,0,0,0,0,0,0,0,0,0,0,0,0,0,0,0,0,0,0,0,0,0,0,0,0,0,0,0,0,0,0,0,0,0,0,0,0,0,0,0,0,0,0,0,0,0,0,0,0,0,0,0,0,0],"sum_hessian":[2.688E3,2.002E3,6.86E2,1.775E3,2.27E2,5.88E2,9.8E1,1.226E3,5.49E2,6.9E1,1.58E2,1.96E2,3.92E2,8.7E1,1.1E1,1.047E3,1.79E2,2.55E2,2.94E2,9E0,6E1,9.2E1,6.6E1,7E1,1.26E2,1.32E2,2.6E2,5.4E1,3.3E1,4E0,7E0,9.57E2,9E1,1.2E2,5.9E1,1.29E2,1.26E2,2.9E1,2.65E2,6E0,3E0,5.2E1,8E0,7.1E1,2.1E1,4.2E1,2.4E1,6.7E1,3E0,5.2E1,7.4E1,1.1E1,1.21E2,1.1E1,2.49E2,4.8E1,6E0,1.6E1,1.7E1,2E0,2E0,1E0,6E0],"tree_param":{"num_deleted":"0","num_feature":"3","num_nodes":"63","size_leaf_vector":"1"}},{"base_weights":[2.4916767E-4,9.763431E-3,-7.231003E-3,-3.363029E-2,1.5994996E-2,-2.4636087E-3,-2.5541525E-2,3.9294973E-2,-6.075236E-2,4.8223123E-2,5.7909363E-3,2.1583702E-2,-7.5480463E-3,-4.283807E-2,3.6898162E-2,-4.4405445E-2,1.0673032E-1,3.2333997E-3,-9.105959E-2,-1.0821914E-1,5.6600872E-2,-2.3666222E-2,2.0932447E-2,9.1398135E-3,1.9425645E-1,-4.8177972E-2,-1.03158294E-4,-6.75654E-2,3.0838363E-2,2.1552357E-1,-9.240999E-3,7.945159E-3,-2.6808202E-2,-1.2607268E-2,2.1646118E-2,7.4788453E-3,-6.472578E-3,-1.3059807E-2,-5.222767E-3,1.939271E-2,-3.213014E-2,9.845914E-3,3.1666681E-3,-8.52953E-3,3.0126164E-4,6.5691943E-6,5.9150006E-3,-3.0791613E-3,5.279723E-3,2.6360368E-2,-4.501252E-3,-2.4483716E-3,-1.3038776E-2,-2.4568497E-3,5.7237985E-4,-1.3013995E-3,-1.1796024E-2,8.808273E-3,-1.033506E-2,5.71814E-2,-2.2245457E-2,-1.1740289E-2,2.8701752E-2],"categories":[],"categories_nodes":[],"categories_segments":[],"categories_sizes":[],"default_left":[0,0,0,0,0,0,0,0,0,0,0,0,0,0,0,0,0,0,0,0,0,0,0,0,0,0,0,0,0,0,0,0,0,0,0,0,0,0,0,0,0,0,0,0,0,0,0,0,0,0,0,0,0,0,0,0,0,0,0,0,0,0,0],"id":18,"left_children":[1,3,5,7,9,11,13,15,17,19,21,23,25,27,29,31,33,35,37,39,41,43,45,47,49,51,53,55,57,59,61,-1,-1,-1,-1,-1,-1,-1,-1,-1,-1,-1,-1,-1,-1,-1,-1,-1,-1,-1,-1,-1,-1,-1,-1,-1,-1,-1,-1,-1,-1,-1,-1],"loss_changes":[1.9144219E-1,3.2070428E-1,1.3140106E-1,2.9709196E-1,3.404174E-1,1.4639431E-1,3.3745784E-1,2.3615845E-1,2.1167064E-1,3.324731E-1,3.5196376E-1,4.473071E-1,2.9885048E-1,4.4660795E-1,5.624223E-1,5.47674E-1,6.148404E-1,1.7990237E-1,1.0679537E-1,8.992751E-1,2.4423945E-1,4.4090044E-1,4.1548133E-1,3.4331304E-1,2.4416244E-1,2.948363E-1,1.193195E-1,5.015519E-1,4.853602E-1,2.3118668E0,1.79611E0,0E0,0E0,0E0,0E0,0E0,0E0,0E0,0E0,0E0,0E0,0E0,0E0,0E0,0E0,0E0,0E0,0E0,0E0,0E0,0E0,0E0,0E0,0E0,0E0,0E0,0E0,0E0,0E0,0E0,0E0,0E0,0E0],"parents":[2147483647,0,0,1,1,2,2,3,3,4,4,5,5,6,6,7,7,8,8,9,9,10,10,11,11,12,12,13,13,14,14,15,15,16,16,17,17,18,18,19,19,20,20,21,21,22,22,23,23,24,24,25,25,26,26,27,27,28,28,29,29,30,30],"right_children":[2,4,6,8,10,12,14,16,18,20,22,24,26,28,30,32,34,36,38,40,42,44,46,48,50,52,54,56,58,60,62,-1,-1,-1,-1,-1,-1,-1,-1,-1,-1,-1,-1,-1,-1,-1,-1,-1,-1,-1,-1,-1,-1,-1,-1,-1,-1,-1,-1,-1,-1,-1,-1],"split_conditions":[3E0,3E0,1.6E1,6E0,8E0,4E0,1.9E1,3E0,1E0,1E0,1E0,1.5E1,7E0,1.9E1,2E1,2E0,1E0,1.3E1,2E0,5E0,8E0,1.3E1,1.3E1,2E0,3E0,6E0,3E0,5E0,1.4E1,5E0,6E0,7.945159E-3,-2.6808202E-2,-1.2607268E-2,2.1646118E-2,7.4788453E-3,-6.472578E-3,-1.3059807E-2,-5.222767E-3,1.939271E-2,-3.213014E-2,9.845914E-3,3.1666681E-3,-8.52953E-3,3.0126164E-4,6.5691943E-6,5.9150006E-3,-3.0791613E-3,5.279723E-3,2.6360368E-2,-4.501252E-3,-2.4483716E-3,-1.3038776E-2,-2.4568497E-3,5.7237985E-4,-1.3013995E-3,-1.1796024E-2,8.808273E-3,-1.033506E-2,5.71814E-2,-2.2245457E-2,-1.1740289E-2,2.8701752E-2],"split_indices":[2,1,0,0,1,1,1,0,2,0,2,0,1,0,1,2,2,0,2,1,0,1,0,1,1,2,0,2,1,2,2,0,0,0,0,0,0,0,0,0,0,0,0,0,0,0,0,0,0,0,0,0,0,0,0,0,0,0,0,0,0,0,0],"split_type":[0,0,0,0,0,0,0,0,0,0,0,0,0,0,0,0,0,0,0,0,0,0,0,0,0,0,0,0,0,0,0,0,0,0,0,0,0,0,0,0,0,0,0,0,0,0,0,0,0,0,0,0,0,0,0,0,0,0,0,0,0,0,0],"sum_hessian":[2.688E3,1.183E3,1.505E3,1.48E2,1.035E3,1.195E3,3.1E2,4E1,1.08E2,2.48E2,7.87E2,2.08E2,9.87E2,2.43E2,6.7E1,1.8E1,2.2E1,3.5E1,7.3E1,1.2E1,2.36E2,2.67E2,5.2E2,1.95E2,1.3E1,1.52E2,8.35E2,1.82E2,6.1E1,1.3E1,5.4E1,1.2E1,6E0,7E0,1.5E1,1.7E1,1.8E1,3.5E1,3.8E1,5E0,7E0,8.7E1,1.49E2,8E1,1.87E2,3.37E2,1.83E2,1.02E2,9.3E1,1E1,3E0,1.19E2,3.3E1,1.6E2,6.75E2,8.8E1,9.4E1,4.3E1,1.8E1,7E0,6E0,4E1,1.4E1],"tree_param":{"num_deleted":"0","num_feature":"3","num_nodes":"63","size_leaf_vector":"1"}},{"base_weights":[2.2976751E-4,8.762487E-3,-6.478712E-3,-6.2278323E-2,1.1884318E-2,1.086219E-2,-1.0801376E-2,1.1815765E-2,-9.1420904E-2,3.338147E-3,2.8655551E-2,-7.838819E-3,2.0896281E-1,-6.108772E-3,-1.1079713E-1,-1.776504E-2,1.24313876E-1,-2.2152713E-2,-4.6336018E-2,2.080681E-2,-2.7629623E-2,-1.0332504E-2,4.8037644E-2,3.9778993E-2,-1.0196611E-1,9.107168E-2,4.21527E-1,-1.6237043E-2,2.9984824E-2,-2.0642342E-1,-3.318978E-2,-6.7262053E-3,3.2934222E-2,1.0324689E-2,-1.1133152E-2,8.2745374E-4,1.967833E-2,-8.941109E-3,3.7611239E-3,3.273333E-4,-2.8753007E-2,3.4644206E-3,3.4319658E-2,2.2302836E-3,2.8841201E-2,-2.2268565E-2,-5.674938E-3,4.0386826E-2,-6.030149E-3,8.693372E-3,6.718149E-2,1.2500025E-3,-2.7537993E-3,1.2274858E-4,1.1144536E-2,-1.2016484E-2,-3.987421E-2,4.4912856E-2,-1.0090705E-2],"categories":[],"categories_nodes":[],"categories_segments":[],"categories_sizes":[],"default_left":[0,0,0,0,0,0,0,0,0,0,0,0,0,0,0,0,0,0,0,0,0,0,0,0,0,0,0,0,0,0,0,0,0,0,0,0,0,0,0,0,0,0,0,0,0,0,0,0,0,0,0,0,0,0,0,0,0,0,0],"id":19,"left_children":[1,3,5,7,9,11,13,15,17,19,21,23,25,27,29,-1,31,-1,33,35,37,39,41,43,45,47,49,51,53,55,57,-1,-1,-1,-1,-1,-1,-1,-1,-1,-1,-1,-1,-1,-1,-1,-1,-1,-1,-1,-1,-1,-1,-1,-1,-1,-1,-1,-1],"loss_changes":[1.5397936E-1,2.6332456E-1,1.1300542E-1,1.0904485E-1,1.6258371E-1,1.1167473E0,5.652272E-1,3.4180316E-1,2.0090497E-1,4.079219E-1,2.89918E-1,1.2411255E0,6.131562E-1,4.2198408E-1,3.938992E-1,0E0,4.149372E-1,0E0,2.837167E-1,1.0613673E0,1.0997068E0,4.8369387E-1,1.0001277E0,7.930752E-1,4.9500728E-1,8.766361E-1,6.9529843E-1,2.9294956E-1,5.9253794E-1,3.502245E-1,1.0578198E0,0E0,0E0,0E0,0E0,0E0,0E0,0E0,0E0,0E0,0E0,0E0,0E0,0E0,0E0,0E0,0E0,0E0,0E0,0E0,0E0,0E0,0E0,0E0,0E0,0E0,0E0,0E0,0E0],"parents":[2147483647,0,0,1,1,2,2,3,3,4,4,5,5,6,6,7,7,8,8,9,9,10,10,11,11,12,12,13,13,14,14,16,16,18,18,19,19,20,20,21,21,22,22,23,23,24,24,25,25,26,26,27,27,28,28,29,29,30,30],"right_children":[2,4,6,8,10,12,14,16,18,20,22,24,26,28,30,-1,32,-1,34,36,38,40,42,44,46,48,50,52,54,56,58,-1,-1,-1,-1,-1,-1,-1,-1,-1,-1,-1,-1,-1,-1,-1,-1,-1,-1,-1,-1,-1,-1,-1,-1,-1,-1,-1,-1],"split_conditions":[3E0,1E0,4E0,6E0,2E0,2.2E1,2.3E1,1E0,9E0,1.6E1,7E0,1.5E1,6E0,1.8E1,1.1E1,-1.776504E-2,3E0,-2.2152713E-2,1.2E1,1.5E1,2E1,2.3E1,2.3E1,1.4E1,4E0,4E0,2.3E1,5E0,6E0,6E0,1.2E1,-6.7262053E-3,3.2934222E-2,1.0324689E-2,-1.1133152E-2,8.2745374E-4,1.967833E-2,-8.941109E-3,3.7611239E-3,3.273333E-4,-2.8753007E-2,3.4644206E-3,3.4319658E-2,2.2302836E-3,2.8841201E-2,-2.2268565E-2,-5.674938E-3,4.0386826E-2,-6.030149E-3,8.693372E-3,6.718149E-2,1.2500025E-3,-2.7537993E-3,1.2274858E-4,1.1144536E-2,-1.2016484E-2,-3.987421E-2,4.4912856E-2,-1.0090705E-2],"split_indices":[2,1,0,0,2,1,1,2,0,1,0,1,2,1,0,0,0,0,0,1,1,1,1,1,2,2,1,1,2,2,0,0,0,0,0,0,0,0,0,0,0,0,0,0,0,0,0,0,0,0,0,0,0,0,0,0,0,0,0],"split_type":[0,0,0,0,0,0,0,0,0,0,0,0,0,0,0,0,0,0,0,0,0,0,0,0,0,0,0,0,0,0,0,0,0,0,0,0,0,0,0,0,0,0,0,0,0,0,0,0,0,0,0,0,0,0,0,0,0,0,0],"sum_hessian":[2.688E3,1.183E3,1.505E3,4.9E1,1.134E3,3E2,1.205E3,1.4E1,3.5E1,7.52E2,3.82E2,2.75E2,2.5E1,1.152E3,5.3E1,5E0,9E0,8E0,2.7E1,4.81E2,2.71E2,1.27E2,2.55E2,1.83E2,9.2E1,1.7E1,8E0,9E2,2.52E2,2.3E1,3E1,5E0,4E0,8E0,1.9E1,4.5E2,3.1E1,1.39E2,1.32E2,1.22E2,5E0,2.45E2,1E1,1.72E2,1.1E1,2.4E1,6.8E1,5E0,1.2E1,4E0,4E0,2.54E2,6.46E2,1.87E2,6.5E1,1.7E1,6E0,3E0,2.7E1],"tree_param":{"num_deleted":"0","num_feature":"3","num_nodes":"59","size_leaf_vector":"1"}},{"base_weights":[2.5000906E-4,9.218322E-3,-5.6278394E-3,2.3966685E-3,5.318453E-2,-3.5596486E-2,8.0415586E-5,-6.625357E-2,5.500303E-3,-4.7706407E-2,7.094204E-2,-2.7416345E-2,-1.2284455E-1,9.102469E-3,-1.7307011E-2,-8.548073E-2,5.6947082E-2,2.4101634E-3,6.89778E-2,2.3684216E-1,-1.4532904E-1,-1.38421375E-2,9.997667E-2,-3.4046236E-2,1.13098375E-1,-4.4960365E-2,-1.9664142E-2,-6.1188857E-3,5.1709548E-2,-8.488002E-2,5.783229E-3,-2.1414224E-3,-1.4479831E-2,2.846233E-2,-4.5512817E-3,1.2711264E-3,-2.2826858E-3,3.0575234E-2,-1.7264051E-3,-2.3249745E-2,5.2963633E-2,-8.323249E-3,-2.0478362E-2,-3.971213E-3,1.0487984E-2,1.8729238E-2,4.706787E-3,4.833912E-3,-4.8163873E-3,-9.205809E-3,4.9513668E-2,-9.802993E-3,1.4692499E-2,1.8383727E-3,-3.127517E-3,2.1598833E-2,3.218523E-3,-1.529208E-2,-6.873943E-3,-7.958241E-3,2.065984E-3],"categories":[],"categories_nodes":[],"categories_segments":[],"categories_sizes":[],"default_left":[0,0,0,0,0,0,0,0,0,0,0,0,0,0,0,0,0,0,0,0,0,0,0,0,0,0,0,0,0,0,0,0,0,0,0,0,0,0,0,0,0,0,0,0,0,0,0,0,0,0,0,0,0,0,0,0,0,0,0,0,0],"id":20,"left_children":[1,3,5,7,9,11,13,15,17,19,21,23,25,27,29,31,33,35,37,39,41,43,45,47,49,51,-1,53,55,57,59,-1,-1,-1,-1,-1,-1,-1,-1,-1,-1,-1,-1,-1,-1,-1,-1,-1,-1,-1,-1,-1,-1,-1,-1,-1,-1,-1,-1,-1,-1],"loss_changes":[1.4180087E-1,3.1928974E-1,2.7798945E-1,1.9702366E-1,2.595791E-1,1.8219438E-1,2.1444236E-1,9.961979E-2,1.732342E-1,6.455445E-1,3.0170858E-1,2.2650242E-1,1.1760637E-1,5.840001E-1,7.2914016E-1,1.2990871E-1,1.5292011E-1,2.1970408E-1,8.4249336E-1,9.476584E-1,4.5718014E-2,1.0244776E-1,4.115836E-1,2.686749E-1,9.077352E-1,1.3660231E-1,0E0,4.09861E-1,7.532094E-1,1.20176256E-1,4.4485718E-1,0E0,0E0,0E0,0E0,0E0,0E0,0E0,0E0,0E0,0E0,0E0,0E0,0E0,0E0,0E0,0E0,0E0,0E0,0E0,0E0,0E0,0E0,0E0,0E0,0E0,0E0,0E0,0E0,0E0,0E0],"parents":[2147483647,0,0,1,1,2,2,3,3,4,4,5,5,6,6,7,7,8,8,9,9,10,10,11,11,12,12,13,13,14,14,15,15,16,16,17,17,18,18,19,19,20,20,21,21,22,22,23,23,24,24,25,25,27,27,28,28,29,29,30,30],"right_children":[2,4,6,8,10,12,14,16,18,20,22,24,26,28,30,32,34,36,38,40,42,44,46,48,50,52,-1,54,56,58,60,-1,-1,-1,-1,-1,-1,-1,-1,-1,-1,-1,-1,-1,-1,-1,-1,-1,-1,-1,-1,-1,-1,-1,-1,-1,-1,-1,-1,-1,-1],"split_conditions":[8E0,7E0,1E1,1E0,1E0,2.2E1,1.6E1,6E0,2.3E1,5E0,6E0,2.1E1,9E0,1.2E1,1.8E1,3E0,1E0,5E0,2E0,2E0,1.6E1,6E0,3E0,1E0,5E0,5E0,-1.9664142E-2,6E0,1.1E1,1.2E1,1E0,-2.1414224E-3,-1.4479831E-2,2.846233E-2,-4.5512817E-3,1.2711264E-3,-2.2826858E-3,3.0575234E-2,-1.7264051E-3,-2.3249745E-2,5.2963633E-2,-8.323249E-3,-2.0478362E-2,-3.971213E-3,1.0487984E-2,1.8729238E-2,4.706787E-3,4.833912E-3,-4.8163873E-3,-9.205809E-3,4.9513668E-2,-9.802993E-3,1.4692499E-2,1.8383727E-3,-3.127517E-3,2.1598833E-2,3.218523E-3,-1.529208E-2,-6.873943E-3,-7.958241E-3,2.065984E-3],"split_indices":[0,0,0,1,2,1,1,2,1,1,1,1,0,1,1,2,0,2,0,1,1,2,2,2,2,2,0,1,0,0,2,0,0,0,0,0,0,0,0,0,0,0,0,0,0,0,0,0,0,0,0,0,0,0,0,0,0,0,0,0,0],"split_type":[0,0,0,0,0,0,0,0,0,0,0,0,0,0,0,0,0,0,0,0,0,0,0,0,0,0,0,0,0,0,0,0,0,0,0,0,0,0,0,0,0,0,0,0,0,0,0,0,0,0,0,0,0,0,0,0,0,0,0,0,0],"sum_hessian":[2.688E3,1.064E3,1.624E3,9.22E2,1.42E2,2.59E2,1.365E3,3.9E1,8.83E2,2.1E1,1.21E2,2.38E2,2.1E1,8.99E2,4.66E2,3.4E1,5E0,8.43E2,4E1,5E0,1.6E1,3.1E1,9E1,2.28E2,1E1,1.1E1,1E1,6.63E2,2.36E2,1.18E2,3.48E2,1.7E1,1.7E1,1E0,4E0,5.99E2,2.44E2,1E1,3E1,2E0,3E0,9E0,7E0,2.6E1,5E0,3.3E1,5.7E1,3.3E1,1.95E2,7E0,3E0,9E0,2E0,3.36E2,3.27E2,2.4E1,2.12E2,2.1E1,9.7E1,5.1E1,2.97E2],"tree_param":{"num_deleted":"0","num_feature":"3","num_nodes":"61","size_leaf_vector":"1"}},{"base_weights":[2.57364E-4,1.4089377E-2,-3.0257895E-3,8.626461E-3,1.3636453E-1,-7.5649973E-3,1.0229242E-2,3.173756E-2,-3.307448E-2,-1.8128372E-3,6.065302E-2,-3.1539414E-3,-4.2399857E-2,6.537753E-2,-1.0135475E-3,1.822256E-2,1.22931406E-1,-8.4419176E-2,1.749671E-2,-2.7612029E-2,9.628359E-2,-4.581879E-2,3.0988345E-3,-1.12499736E-1,-1.0351503E-2,1.4930601E-1,-5.2821124E-3,-1.5454388E-2,9.9840835E-2,-2.5498953E-3,3.1355934E-3,6.8485425E-3,2.848654E-2,1.6505821E-3,-1.4527428E-2,1.3069388E-2,-2.5646107E-3,4.884733E-2,-1.0943962E-2,-2.673406E-3,-1.26301395E-2,-9.2649316E-5,6.2282733E-3,-1.3403902E-2,1.7269684E-3,1.1495578E-2,-4.8999614E-3,-3.8454332E-3,3.142478E-2,1.1710779E-2,-1.2294342E-2,-5.1863823E-4,-1.3916561E-2,2.0018779E-2,-4.892553E-5],"categories":[],"categories_nodes":[],"categories_segments":[],"categories_sizes":[],"default_left":[0,0,0,0,0,0,0,0,0,0,0,0,0,0,0,0,0,0,0,0,0,0,0,0,0,0,0,0,0,0,0,0,0,0,0,0,0,0,0,0,0,0,0,0,0,0,0,0,0,0,0,0,0,0,0],"id":21,"left_children":[1,3,5,7,9,11,13,15,17,19,-1,21,23,25,27,29,31,33,35,-1,37,39,41,43,45,47,49,51,53,-1,-1,-1,-1,-1,-1,-1,-1,-1,-1,-1,-1,-1,-1,-1,-1,-1,-1,-1,-1,-1,-1,-1,-1,-1,-1],"loss_changes":[1.2215717E-1,3.4350073E-1,1.308812E-1,4.7810823E-1,1.4303571E0,2.4879311E-1,3.4417775E-1,3.909226E-1,4.6106857E-1,5.109404E-1,0E0,3.840294E-1,4.07714E-1,5.5824214E-1,6.744099E-1,1.610044E-1,3.4197378E-1,5.4287636E-1,4.4287986E-1,0E0,1.1830137E0,2.792454E-1,2.9928035E-1,1.6163778E-1,6.158369E-1,1.3437737E0,7.6322645E-1,5.137366E-1,5.840314E-1,0E0,0E0,0E0,0E0,0E0,0E0,0E0,0E0,0E0,0E0,0E0,0E0,0E0,0E0,0E0,0E0,0E0,0E0,0E0,0E0,0E0,0E0,0E0,0E0,0E0,0E0],"parents":[2147483647,0,0,1,1,2,2,3,3,4,4,5,5,6,6,7,7,8,8,9,9,11,11,12,12,13,13,14,14,15,15,16,16,17,17,18,18,20,20,21,21,22,22,23,23,24,24,25,25,26,26,27,27,28,28],"right_children":[2,4,6,8,10,12,14,16,18,20,-1,22,24,26,28,30,32,34,36,-1,38,40,42,44,46,48,50,52,54,-1,-1,-1,-1,-1,-1,-1,-1,-1,-1,-1,-1,-1,-1,-1,-1,-1,-1,-1,-1,-1,-1,-1,-1,-1,-1],"split_conditions":[4E0,2.3E1,1.8E1,1.5E1,6E0,1.6E1,1.9E1,1.3E1,1.9E1,1E0,6.065302E-2,6E0,2E0,1.1E1,1.8E1,3E0,3E0,3E0,2E1,-2.7612029E-2,2E0,1.3E1,1.5E1,1.8E1,8E0,3E0,3E0,1.7E1,1.9E1,-2.5498953E-3,3.1355934E-3,6.8485425E-3,2.848654E-2,1.6505821E-3,-1.4527428E-2,1.3069388E-2,-2.5646107E-3,4.884733E-2,-1.0943962E-2,-2.673406E-3,-1.26301395E-2,-9.2649316E-5,6.2282733E-3,-1.3403902E-2,1.7269684E-3,1.1495578E-2,-4.8999614E-3,-3.8454332E-3,3.142478E-2,1.1710779E-2,-1.2294342E-2,-5.1863823E-4,-1.3916561E-2,2.0018779E-2,-4.892553E-5],"split_indices":[0,1,1,1,2,1,1,1,1,0,0,0,2,0,0,1,0,2,1,0,0,1,1,0,0,2,2,0,0,0,0,0,0,0,0,0,0,0,0,0,0,0,0,0,0,0,0,0,0,0,0,0,0,0,0],"split_type":[0,0,0,0,0,0,0,0,0,0,0,0,0,0,0,0,0,0,0,0,0,0,0,0,0,0,0,0,0,0,0,0,0,0,0,0,0,0,0,0,0,0,0,0,0,0,0,0,0,0,0,0,0,0,0],"sum_hessian":[2.688E3,5.15E2,2.173E3,4.94E2,2.1E1,1.619E3,5.54E2,3.18E2,1.76E2,1.7E1,4E0,1.438E3,1.81E2,9.3E1,4.61E2,2.78E2,4E1,8.7E1,8.9E1,4E0,1.3E1,1.83E2,1.255E3,5.6E1,1.25E2,4.2E1,5.1E1,4.04E2,5.7E1,6.4E1,2.14E2,3.1E1,9E0,3.3E1,5.4E1,2.4E1,6.5E1,4E0,9E0,1.49E2,3.4E1,1.176E3,7.9E1,4.8E1,8E0,2.9E1,9.6E1,2E1,2.2E1,2.5E1,2.6E1,3.74E2,3E1,2.8E1,2.9E1],"tree_param":{"num_deleted":"0","num_feature":"3","num_nodes":"55","size_leaf_vector":"1"}},{"base_weights":[2.772898E-4,7.7107647E-3,-5.567007E-3,-2.9369459E-2,1.3036288E-2,-1.3915208E-3,-2.1606605E-2,3.6954787E-2,-5.4047663E-2,4.100534E-2,4.1818083E-3,-8.602162E-3,1.4417916E-2,-3.026534E-2,7.05914E-2,-3.522268E-2,9.4972916E-2,3.569472E-3,-8.134725E-2,-1.461986E-2,6.416022E-2,-2.3682162E-2,1.6355162E-2,-2.2189112E-2,3.1099753E-2,3.9982256E-2,-6.698007E-2,-7.1856393E-3,-5.892209E-2,1.7137146E-1,-5.1123396E-2,7.845025E-3,-2.4129774E-2,-1.06317345E-2,1.8968225E-2,-1.4085214E-2,3.1406898E-3,3.5290706E-3,-9.215781E-3,-6.060798E-3,5.8830953E-3,2.677632E-2,2.7083955E-3,-7.737525E-3,3.6479757E-4,1.0915503E-2,7.449288E-4,-1.08717E-3,-1.244242E-2,-1.6358771E-4,3.803707E-2,1.7131448E-2,1.9779014E-3,-2.658458E-2,-5.4639275E-3,-3.965504E-3,1.3375463E-2,-1.6411249E-2,-2.4697103E-3,7.6109185E-3,2.6936991E-2,3.208375E-3,-2.4636043E-2],"categories":[],"categories_nodes":[],"categories_segments":[],"categories_sizes":[],"default_left":[0,0,0,0,0,0,0,0,0,0,0,0,0,0,0,0,0,0,0,0,0,0,0,0,0,0,0,0,0,0,0,0,0,0,0,0,0,0,0,0,0,0,0,0,0,0,0,0,0,0,0,0,0,0,0,0,0,0,0,0,0,0,0],"id":22,"left_children":[1,3,5,7,9,11,13,15,17,19,21,23,25,27,29,31,33,35,37,39,41,43,45,47,49,51,53,55,57,59,61,-1,-1,-1,-1,-1,-1,-1,-1,-1,-1,-1,-1,-1,-1,-1,-1,-1,-1,-1,-1,-1,-1,-1,-1,-1,-1,-1,-1,-1,-1,-1,-1],"loss_changes":[1.1686234E-1,2.3418926E-1,1.00831464E-1,2.4587509E-1,2.563954E-1,1.3646345E-1,2.5041342E-1,1.7503688E-1,1.7173904E-1,3.2164878E-1,2.6767534E-1,4.4409978E-1,7.830101E-1,1.8807253E-1,3.3995456E-1,4.640078E-1,4.5864E-1,1.4915547E-1,9.65606E-2,2.5352764E-1,1.3213437E0,3.524677E-1,4.529156E-1,7.0791066E-1,2.401679E0,7.5546575E-1,2.0634896E-1,7.3292714E-1,4.5316464E-1,1.1953181E-1,2.1909067E-1,0E0,0E0,0E0,0E0,0E0,0E0,0E0,0E0,0E0,0E0,0E0,0E0,0E0,0E0,0E0,0E0,0E0,0E0,0E0,0E0,0E0,0E0,0E0,0E0,0E0,0E0,0E0,0E0,0E0,0E0,0E0,0E0],"parents":[2147483647,0,0,1,1,2,2,3,3,4,4,5,5,6,6,7,7,8,8,9,9,10,10,11,11,12,12,13,13,14,14,15,15,16,16,17,17,18,18,19,19,20,20,21,21,22,22,23,23,24,24,25,25,26,26,27,27,28,28,29,29,30,30],"right_children":[2,4,6,8,10,12,14,16,18,20,22,24,26,28,30,32,34,36,38,40,42,44,46,48,50,52,54,56,58,60,62,-1,-1,-1,-1,-1,-1,-1,-1,-1,-1,-1,-1,-1,-1,-1,-1,-1,-1,-1,-1,-1,-1,-1,-1,-1,-1,-1,-1,-1,-1,-1,-1],"split_conditions":[3E0,3E0,1.6E1,6E0,8E0,1.1E1,2.2E1,3E0,1E0,6E0,1.3E1,6E0,6E0,1.3E1,2.3E1,2E0,1E0,8E0,7E0,6E0,8E0,1E0,1.4E1,1E1,1E1,3E0,1E0,1.1E1,4E0,1.8E1,1.9E1,7.845025E-3,-2.4129774E-2,-1.06317345E-2,1.8968225E-2,-1.4085214E-2,3.1406898E-3,3.5290706E-3,-9.215781E-3,-6.060798E-3,5.8830953E-3,2.677632E-2,2.7083955E-3,-7.737525E-3,3.6479757E-4,1.0915503E-2,7.449288E-4,-1.08717E-3,-1.244242E-2,-1.6358771E-4,3.803707E-2,1.7131448E-2,1.9779014E-3,-2.658458E-2,-5.4639275E-3,-3.965504E-3,1.3375463E-2,-1.6411249E-2,-2.4697103E-3,7.6109185E-3,2.6936991E-2,3.208375E-3,-2.4636043E-2],"split_indices":[2,1,0,0,1,0,1,0,2,0,1,2,2,1,1,2,2,0,0,1,0,2,1,0,0,1,1,1,2,0,0,0,0,0,0,0,0,0,0,0,0,0,0,0,0,0,0,0,0,0,0,0,0,0,0,0,0,0,0,0,0,0,0],"split_type":[0,0,0,0,0,0,0,0,0,0,0,0,0,0,0,0,0,0,0,0,0,0,0,0,0,0,0,0,0,0,0,0,0,0,0,0,0,0,0,0,0,0,0,0,0,0,0,0,0,0,0,0,0,0,0,0,0,0,0,0,0,0,0],"sum_hessian":[2.688E3,1.183E3,1.505E3,1.48E2,1.035E3,1.195E3,3.1E2,4E1,1.08E2,2.48E2,7.87E2,8.21E2,3.74E2,2.84E2,2.6E1,1.8E1,2.2E1,3.5E1,7.3E1,7.3E1,1.75E2,2.39E2,5.48E2,6.12E2,2.09E2,2.85E2,8.9E1,1.58E2,1.26E2,1.4E1,1.2E1,1.2E1,6E0,7E0,1.5E1,5E0,3E1,6E0,6.7E1,4.5E1,2.8E1,2.6E1,1.49E2,8E1,1.59E2,4.7E1,5.01E2,5.52E2,6E1,1.92E2,1.7E1,3.7E1,2.48E2,4E0,8.5E1,1.29E2,2.9E1,3E1,9.6E1,8E0,6E0,9E0,3E0],"tree_param":{"num_deleted":"0","num_feature":"3","num_nodes":"63","size_leaf_vector":"1"}},{"base_weights":[2.585078E-4,1.338072E-2,-2.856175E-3,8.345136E-3,1.2607315E-1,-6.9999075E-3,9.24419E-3,2.9356522E-2,-2.9569991E-2,-9.491079E-4,5.5813868E-2,-3.1564168E-3,-3.7350364E-2,5.9625007E-2,-1.0264613E-3,1.750018E-2,1.09321475E-1,-7.588274E-2,1.6042141E-2,-2.5389377E-2,8.945606E-2,-4.1443713E-2,2.4550634E-3,-1.0218647E-1,-7.723312E-3,1.350015E-1,-3.8521895E-3,-1.4140577E-2,9.056394E-2,-2.283099E-3,2.961193E-3,5.9676166E-3,2.5725434E-2,1.418077E-3,-1.3017868E-2,1.1834727E-2,-2.2952864E-3,4.4953234E-2,-9.952768E-3,-2.4003654E-3,-1.1500272E-2,-1.2717288E-4,5.7254806E-3,-1.4316346E-2,-3.987798E-3,1.0422102E-2,-4.226565E-3,-3.5501483E-3,2.8480848E-2,1.0513114E-2,-1.0865643E-2,-4.88833E-4,-1.2560676E-2,2.0660412E-2,8.4059977E-4],"categories":[],"categories_nodes":[],"categories_segments":[],"categories_sizes":[],"default_left":[0,0,0,0,0,0,0,0,0,0,0,0,0,0,0,0,0,0,0,0,0,0,0,0,0,0,0,0,0,0,0,0,0,0,0,0,0,0,0,0,0,0,0,0,0,0,0,0,0,0,0,0,0,0,0],"id":23,"left_children":[1,3,5,7,9,11,13,15,17,19,-1,21,23,25,27,29,31,33,35,-1,37,39,41,43,45,47,49,51,53,-1,-1,-1,-1,-1,-1,-1,-1,-1,-1,-1,-1,-1,-1,-1,-1,-1,-1,-1,-1,-1,-1,-1,-1,-1,-1],"loss_changes":[1.09941766E-1,2.9176357E-1,1.0907054E-1,3.9520952E-1,1.2079324E0,1.8885785E-1,2.8724247E-1,3.0052817E-1,3.7511623E-1,4.3432742E-1,0E0,3.092686E-1,3.4881514E-1,4.5028073E-1,5.5620134E-1,1.3696226E-1,2.8575912E-1,4.3217325E-1,3.6176136E-1,0E0,9.974207E-1,2.3328823E-1,2.5658226E-1,1.3982409E-1,4.916241E-1,1.1084404E0,6.053627E-1,4.1706762E-1,5.5121326E-1,0E0,0E0,0E0,0E0,0E0,0E0,0E0,0E0,0E0,0E0,0E0,0E0,0E0,0E0,0E0,0E0,0E0,0E0,0E0,0E0,0E0,0E0,0E0,0E0,0E0,0E0],"parents":[2147483647,0,0,1,1,2,2,3,3,4,4,5,5,6,6,7,7,8,8,9,9,11,11,12,12,13,13,14,14,15,15,16,16,17,17,18,18,20,20,21,21,22,22,23,23,24,24,25,25,26,26,27,27,28,28],"right_children":[2,4,6,8,10,12,14,16,18,20,-1,22,24,26,28,30,32,34,36,-1,38,40,42,44,46,48,50,52,54,-1,-1,-1,-1,-1,-1,-1,-1,-1,-1,-1,-1,-1,-1,-1,-1,-1,-1,-1,-1,-1,-1,-1,-1,-1,-1],"split_conditions":[4E0,2.3E1,1.8E1,1.5E1,6E0,1.6E1,1.9E1,1.3E1,1.9E1,1E0,5.5813868E-2,6E0,2E0,1.1E1,1.8E1,3E0,3E0,3E0,2E1,-2.5389377E-2,2E0,1.3E1,1.5E1,1.4E1,8E0,3E0,3E0,1.7E1,2.1E1,-2.283099E-3,2.961193E-3,5.9676166E-3,2.5725434E-2,1.418077E-3,-1.3017868E-2,1.1834727E-2,-2.2952864E-3,4.4953234E-2,-9.952768E-3,-2.4003654E-3,-1.1500272E-2,-1.2717288E-4,5.7254806E-3,-1.4316346E-2,-3.987798E-3,1.0422102E-2,-4.226565E-3,-3.5501483E-3,2.8480848E-2,1.0513114E-2,-1.0865643E-2,-4.88833E-4,-1.2560676E-2,2.0660412E-2,8.4059977E-4],"split_indices":[0,1,1,1,2,1,1,1,1,0,0,0,2,0,0,1,0,2,1,0,0,1,1,0,0,2,2,0,1,0,0,0,0,0,0,0,0,0,0,0,0,0,0,0,0,0,0,0,0,0,0,0,0,0,0],"split_type":[0,0,0,0,0,0,0,0,0,0,0,0,0,0,0,0,0,0,0,0,0,0,0,0,0,0,0,0,0,0,0,0,0,0,0,0,0,0,0,0,0,0,0,0,0,0,0,0,0,0,0,0,0,0,0],"sum_hessian":[2.688E3,5.15E2,2.173E3,4.94E2,2.1E1,1.619E3,5.54E2,3.18E2,1.76E2,1.7E1,4E0,1.438E3,1.81E2,9.3E1,4.61E2,2.78E2,4E1,8.7E1,8.9E1,4E0,1.3E1,1.83E2,1.255E3,5.6E1,1.25E2,4.2E1,5.1E1,4.04E2,5.7E1,6.4E1,2.14E2,3.1E1,9E0,3.3E1,5.4E1,2.4E1,6.5E1,4E0,9E0,1.49E2,3.4E1,1.176E3,7.9E1,3.3E1,2.3E1,2.9E1,9.6E1,2E1,2.2E1,2.5E1,2.6E1,3.74E2,3E1,2.3E1,3.4E1],"tree_param":{"num_deleted":"0","num_feature":"3","num_nodes":"55","size_leaf_vector":"1"}},{"base_weights":[2.7295132E-4,7.051596E-3,-5.056523E-3,-2.5880584E-2,1.1781175E-2,1.0752015E-2,-8.997911E-3,3.5335768E-2,-4.866948E-2,4.5663178E-2,5.813497E-3,-4.4128774E-3,1.7131963E-1,-4.7965148E-3,-9.853886E-2,-3.0394565E-2,8.80984E-2,3.0321393E-3,-7.316393E-2,4.1844477E-3,1.6892852E-1,2.0506997E-2,-1.1542815E-2,3.2445673E-2,-7.728987E-2,2.9492525E-2,2.907791E-1,-1.3954887E-2,2.1056894E-2,-1.8420471E-1,-2.9038237E-2,7.3316167E-3,-2.1865813E-2,-9.494356E-3,1.7411323E-2,6.951318E-3,-6.010949E-3,-1.0835225E-2,-3.8806403E-3,3.1409338E-3,-1.0262073E-2,3.6511425E-2,5.679279E-3,5.378958E-4,8.843441E-3,-1.8775454E-3,1.2160522E-2,1.7759074E-3,2.4147367E-2,-1.8796993E-2,-3.6068254E-3,-1.3291708E-2,1.876889E-2,5.2037437E-2,1.4690361E-2,-1.9112427E-3,6.1130053E-3,-3.7401344E-4,9.110091E-3,-1.0310332E-2,-3.664362E-2,4.1316662E-2,-9.117328E-3],"categories":[],"categories_nodes":[],"categories_segments":[],"categories_sizes":[],"default_left":[0,0,0,0,0,0,0,0,0,0,0,0,0,0,0,0,0,0,0,0,0,0,0,0,0,0,0,0,0,0,0,0,0,0,0,0,0,0,0,0,0,0,0,0,0,0,0,0,0,0,0,0,0,0,0,0,0,0,0,0,0,0,0],"id":24,"left_children":[1,3,5,7,9,11,13,15,17,19,21,23,25,27,29,31,33,35,37,39,41,43,45,47,49,51,53,55,57,59,61,-1,-1,-1,-1,-1,-1,-1,-1,-1,-1,-1,-1,-1,-1,-1,-1,-1,-1,-1,-1,-1,-1,-1,-1,-1,-1,-1,-1,-1,-1,-1,-1],"loss_changes":[9.718012E-2,1.8471923E-1,9.393194E-2,2.0958269E-1,2.092105E-1,7.336882E-1,4.532209E-1,1.4487004E-1,1.3825971E-1,7.9179096E-1,2.2516873E-1,7.438825E-1,4.319316E-1,2.7329558E-1,3.1615782E-1,3.8700524E-1,3.7865037E-1,1.5529636E-1,8.526003E-2,3.434311E-1,8.372419E-1,4.9072117E-1,3.9230287E-1,5.6057525E-1,4.1752446E-1,3.58951E-1,3.86019E-1,3.311084E-1,5.248796E-1,3.1692052E-1,8.894387E-1,0E0,0E0,0E0,0E0,0E0,0E0,0E0,0E0,0E0,0E0,0E0,0E0,0E0,0E0,0E0,0E0,0E0,0E0,0E0,0E0,0E0,0E0,0E0,0E0,0E0,0E0,0E0,0E0,0E0,0E0,0E0,0E0],"parents":[2147483647,0,0,1,1,2,2,3,3,4,4,5,5,6,6,7,7,8,8,9,9,10,10,11,11,12,12,13,13,14,14,15,15,16,16,17,17,18,18,19,19,20,20,21,21,22,22,23,23,24,24,25,25,26,26,27,27,28,28,29,29,30,30],"right_children":[2,4,6,8,10,12,14,16,18,20,22,24,26,28,30,32,34,36,38,40,42,44,46,48,50,52,54,56,58,60,62,-1,-1,-1,-1,-1,-1,-1,-1,-1,-1,-1,-1,-1,-1,-1,-1,-1,-1,-1,-1,-1,-1,-1,-1,-1,-1,-1,-1,-1,-1,-1,-1],"split_conditions":[3E0,3E0,4E0,6E0,6E0,2.2E1,2.3E1,3E0,1E0,1.5E1,1.1E1,1.5E1,2E0,1.7E1,1.1E1,2E0,1E0,1.3E1,2E0,1.2E1,4E0,9E0,2.3E1,1.4E1,4E0,2.3E1,4E0,1.9E1,6E0,6E0,1.2E1,7.3316167E-3,-2.1865813E-2,-9.494356E-3,1.7411323E-2,6.951318E-3,-6.010949E-3,-1.0835225E-2,-3.8806403E-3,3.1409338E-3,-1.0262073E-2,3.6511425E-2,5.679279E-3,5.378958E-4,8.843441E-3,-1.8775454E-3,1.2160522E-2,1.7759074E-3,2.4147367E-2,-1.8796993E-2,-3.6068254E-3,-1.3291708E-2,1.876889E-2,5.2037437E-2,1.4690361E-2,-1.9112427E-3,6.1130053E-3,-3.7401344E-4,9.110091E-3,-1.0310332E-2,-3.664362E-2,4.1316662E-2,-9.117328E-3],"split_indices":[2,1,0,0,1,1,1,0,2,0,0,1,0,1,0,2,2,0,2,0,1,0,1,1,2,1,2,0,2,2,0,0,0,0,0,0,0,0,0,0,0,0,0,0,0,0,0,0,0,0,0,0,0,0,0,0,0,0,0,0,0,0,0],"split_type":[0,0,0,0,0,0,0,0,0,0,0,0,0,0,0,0,0,0,0,0,0,0,0,0,0,0,0,0,0,0,0,0,0,0,0,0,0,0,0,0,0,0,0,0,0,0,0,0,0,0,0,0,0,0,0,0,0,0,0,0,0,0,0],"sum_hessian":[2.688E3,1.183E3,1.505E3,1.48E2,1.035E3,3E2,1.205E3,4E1,1.08E2,1.54E2,8.81E2,2.75E2,2.5E1,1.152E3,5.3E1,1.8E1,2.2E1,3.5E1,7.3E1,1.16E2,3.8E1,4.77E2,4.04E2,1.83E2,9.2E1,1.2E1,1.3E1,8.51E2,3.01E2,2.3E1,3E1,1.2E1,6E0,7E0,1.5E1,1.7E1,1.8E1,3.5E1,3.8E1,9.3E1,2.3E1,1.3E1,2.5E1,3.91E2,8.6E1,3.84E2,2E1,1.72E2,1.1E1,2.4E1,6.8E1,6E0,6E0,4E0,9E0,7.97E2,5.4E1,2.23E2,7.8E1,1.7E1,6E0,3E0,2.7E1],"tree_param":{"num_deleted":"0","num_feature":"3","num_nodes":"63","size_leaf_vector":"1"}},{"base_weights":[2.8591373E-4,2.7487618E-3,-1.3529732E-2,1.8761409E-7,2.2410883E-2,-2.1404404E-2,6.8217695E-2,3.4548987E-3,-4.823686E-2,1.279958E-1,5.632978E-4,-1.3019705E-2,-1.6832411E-1,-5.966485E-2,1.1969809E-1,-3.656463E-4,5.2586988E-2,9.517311E-2,-5.2247573E-2,-7.936204E-2,2.0728192E-1,9.817564E-3,-1.7068757E-1,-2.0964235E-2,6.2135264E-2,-2.0720493E-2,-6.651618E-2,-1.4924516E-2,1.28446305E-2,1.8319476E-1,-4.6068754E-2,-6.047799E-4,1.6145342E-3,7.6814825E-3,-9.937321E-3,-1.16732055E-2,3.654443E-2,-1.0195901E-2,-3.159564E-3,1.7302573E-2,-1.3584549E-2,-1.4001163E-2,2.6983125E-2,2.3977093E-3,-7.2004492E-3,-2.5976846E-2,1.8314462E-2,2.2292683E-4,-5.236007E-3,-2.1494476E-2,1.865413E-2,-1.7439047E-2,2.9036477E-2,9.47724E-3,-3.8880955E-3,3.3293676E-2,4.402451E-3,1.03630675E-2,-2.2167584E-2],"categories":[],"categories_nodes":[],"categories_segments":[],"categories_sizes":[],"default_left":[0,0,0,0,0,0,0,0,0,0,0,0,0,0,0,0,0,0,0,0,0,0,0,0,0,0,0,0,0,0,0,0,0,0,0,0,0,0,0,0,0,0,0,0,0,0,0,0,0,0,0,0,0,0,0,0,0,0,0],"id":25,"left_children":[1,3,5,7,9,11,13,15,17,19,21,23,25,27,29,31,33,35,37,39,41,43,45,47,49,-1,51,-1,53,55,57,-1,-1,-1,-1,-1,-1,-1,-1,-1,-1,-1,-1,-1,-1,-1,-1,-1,-1,-1,-1,-1,-1,-1,-1,-1,-1,-1,-1],"loss_changes":[9.153267E-2,1.2337971E-1,2.6345998E-1,3.341234E-1,6.45825E-1,4.5606685E-1,2.4414578E-1,3.5122713E-1,8.204615E-2,8.0559903E-1,3.7093437E-1,2.1206862E-1,6.5384984E-2,7.336663E-2,2.8210622E-1,1.6305943E-1,5.0465834E-1,2.7174652E-1,1.3126796E-1,2.2308499E-1,7.9808354E-1,2.589271E-1,4.2581147E-1,2.3313412E-1,1.2120906E0,0E0,3.201248E-1,0E0,3.334917E-2,3.8129556E-1,2.3327865E-1,0E0,0E0,0E0,0E0,0E0,0E0,0E0,0E0,0E0,0E0,0E0,0E0,0E0,0E0,0E0,0E0,0E0,0E0,0E0,0E0,0E0,0E0,0E0,0E0,0E0,0E0,0E0,0E0],"parents":[2147483647,0,0,1,1,2,2,3,3,4,4,5,5,6,6,7,7,8,8,9,9,10,10,11,11,12,12,13,13,14,14,15,15,16,16,17,17,18,18,19,19,20,20,21,21,22,22,23,23,24,24,26,26,28,28,29,29,30,30],"right_children":[2,4,6,8,10,12,14,16,18,20,22,24,26,28,30,32,34,36,38,40,42,44,46,48,50,-1,52,-1,54,56,58,-1,-1,-1,-1,-1,-1,-1,-1,-1,-1,-1,-1,-1,-1,-1,-1,-1,-1,-1,-1,-1,-1,-1,-1,-1,-1,-1,-1],"split_conditions":[1.7E1,1.5E1,2.2E1,1.4E1,4E0,2.1E1,2E0,1.3E1,1E0,1E0,2.3E1,1.9E1,1.9E1,1.8E1,1.9E1,1.8E1,6E0,3E0,8E0,1E0,1E0,6E0,5E0,4E0,1.8E1,-2.0720493E-2,6E0,-1.4924516E-2,1.9E1,4E0,2.3E1,-6.047799E-4,1.6145342E-3,7.6814825E-3,-9.937321E-3,-1.16732055E-2,3.654443E-2,-1.0195901E-2,-3.159564E-3,1.7302573E-2,-1.3584549E-2,-1.4001163E-2,2.6983125E-2,2.3977093E-3,-7.2004492E-3,-2.5976846E-2,1.8314462E-2,2.2292683E-4,-5.236007E-3,-2.1494476E-2,1.865413E-2,-1.7439047E-2,2.9036477E-2,9.47724E-3,-3.8880955E-3,3.3293676E-2,4.402451E-3,1.03630675E-2,-2.2167584E-2],"split_indices":[0,0,1,0,1,1,2,0,1,1,1,1,0,0,0,1,2,2,1,2,2,2,2,2,0,0,2,0,0,2,1,0,0,0,0,0,0,0,0,0,0,0,0,0,0,0,0,0,0,0,0,0,0,0,0,0,0,0,0],"split_type":[0,0,0,0,0,0,0,0,0,0,0,0,0,0,0,0,0,0,0,0,0,0,0,0,0,0,0,0,0,0,0,0,0,0,0,0,0,0,0,0,0,0,0,0,0,0,0,0,0,0,0,0,0,0,0,0,0,0,0],"sum_hessian":[2.688E3,2.282E3,4.06E2,2.003E3,2.79E2,3.71E2,3.5E1,1.87E3,1.33E2,4.7E1,2.32E2,3.52E2,1.9E1,1E1,2.5E1,1.736E3,1.34E2,3E0,1.3E2,1.3E1,3.4E1,2.21E2,1.1E1,3.19E2,3.3E1,1.3E1,6E0,4E0,6E0,1.8E1,7E0,1.292E3,4.44E2,1.16E2,1.8E1,2E0,1E0,3.7E1,9.3E1,2E0,1.1E1,5E0,2.9E1,1.89E2,3.2E1,9E0,2E0,1.84E2,1.35E2,1E1,2.3E1,5E0,1E0,2E0,4E0,8E0,1E1,4E0,3E0],"tree_param":{"num_deleted":"0","num_feature":"3","num_nodes":"59","size_leaf_vector":"1"}},{"base_weights":[2.62558E-4,7.2930744E-3,-4.345296E-3,1.4254858E-3,4.511469E-2,-3.187688E-2,8.981575E-4,2.0815013E-2,-6.6234996E-3,-4.5477014E-2,6.1081108E-2,-2.4540262E-2,-1.1013028E-1,8.507354E-3,-1.376817E-2,1.24402065E-2,1.860658E-1,4.5409184E-3,-3.3652306E-2,2.1239197E-1,-1.3381447E-1,1.17904596E-1,2.7515233E-2,-3.0536711E-2,1.0252583E-1,-3.880049E-2,-1.7793275E-2,-4.3427837E-3,4.4473533E-2,-6.285905E-2,3.010006E-3,2.0251998E-3,-1.257127E-2,4.016755E-2,8.121532E-3,1.7950966E-3,-1.8042112E-3,-7.5461785E-3,6.1166547E-3,-2.1169197E-2,4.773569E-2,-8.367286E-3,-1.9349208E-2,3.7495045E-3,2.4813829E-2,5.6682224E-3,-1.0986833E-2,4.1249096E-3,-4.283355E-3,-8.704704E-3,4.5604013E-2,-8.782328E-3,1.3754231E-2,1.6384926E-3,-2.5626002E-3,7.0444406E-3,-5.6607453E-3,-1.2464132E-2,-4.834815E-3,-7.5831735E-3,1.6757526E-3],"categories":[],"categories_nodes":[],"categories_segments":[],"categories_sizes":[],"default_left":[0,0,0,0,0,0,0,0,0,0,0,0,0,0,0,0,0,0,0,0,0,0,0,0,0,0,0,0,0,0,0,0,0,0,0,0,0,0,0,0,0,0,0,0,0,0,0,0,0,0,0,0,0,0,0,0,0,0,0,0,0],"id":26,"left_children":[1,3,5,7,9,11,13,15,17,19,21,23,25,27,29,31,33,35,37,39,41,43,45,47,49,51,-1,53,55,57,59,-1,-1,-1,-1,-1,-1,-1,-1,-1,-1,-1,-1,-1,-1,-1,-1,-1,-1,-1,-1,-1,-1,-1,-1,-1,-1,-1,-1,-1,-1],"loss_changes":[8.7143436E-2,2.3628227E-1,2.3461458E-1,1.4418681E-1,2.0961654E-1,1.4656731E-1,1.525613E-1,3.7273395E-1,1.9720268E-1,5.295699E-1,2.2945017E-1,1.8523572E-1,9.949553E-2,4.1614643E-1,3.8483635E-1,2.8206426E-1,2.6126587E-1,1.4053854E-1,7.618021E-1,7.752569E-1,3.467959E-2,4.6193737E-1,3.187787E-1,2.0391399E-1,7.7688086E-1,1.1581722E-1,0E0,2.9334503E-1,6.2615085E-1,1.0065928E-1,3.795443E-1,0E0,0E0,0E0,0E0,0E0,0E0,0E0,0E0,0E0,0E0,0E0,0E0,0E0,0E0,0E0,0E0,0E0,0E0,0E0,0E0,0E0,0E0,0E0,0E0,0E0,0E0,0E0,0E0,0E0,0E0],"parents":[2147483647,0,0,1,1,2,2,3,3,4,4,5,5,6,6,7,7,8,8,9,9,10,10,11,11,12,12,13,13,14,14,15,15,16,16,17,17,18,18,19,19,20,20,21,21,22,22,23,23,24,24,25,25,27,27,28,28,29,29,30,30],"right_children":[2,4,6,8,10,12,14,16,18,20,22,24,26,28,30,32,34,36,38,40,42,44,46,48,50,52,-1,54,56,58,60,-1,-1,-1,-1,-1,-1,-1,-1,-1,-1,-1,-1,-1,-1,-1,-1,-1,-1,-1,-1,-1,-1,-1,-1,-1,-1,-1,-1,-1,-1],"split_conditions":[8E0,7E0,1E1,2E0,1E0,2.2E1,1.6E1,2.3E1,5E0,5E0,3E0,2.1E1,9E0,1.2E1,1.8E1,2.2E1,2E0,1.5E1,1.7E1,2E0,1.7E1,1.6E1,2E1,1E0,5E0,5E0,-1.7793275E-2,6E0,1.8E1,1.2E1,1E0,2.0251998E-3,-1.257127E-2,4.016755E-2,8.121532E-3,1.7950966E-3,-1.8042112E-3,-7.5461785E-3,6.1166547E-3,-2.1169197E-2,4.773569E-2,-8.367286E-3,-1.9349208E-2,3.7495045E-3,2.4813829E-2,5.6682224E-3,-1.0986833E-2,4.1249096E-3,-4.283355E-3,-8.704704E-3,4.5604013E-2,-8.782328E-3,1.3754231E-2,1.6384926E-3,-2.5626002E-3,7.0444406E-3,-5.6607453E-3,-1.2464132E-2,-4.834815E-3,-7.5831735E-3,1.6757526E-3],"split_indices":[0,0,0,2,2,1,1,1,0,1,2,1,0,1,1,1,0,1,1,1,1,1,1,2,2,2,0,1,0,0,2,0,0,0,0,0,0,0,0,0,0,0,0,0,0,0,0,0,0,0,0,0,0,0,0,0,0,0,0,0,0],"split_type":[0,0,0,0,0,0,0,0,0,0,0,0,0,0,0,0,0,0,0,0,0,0,0,0,0,0,0,0,0,0,0,0,0,0,0,0,0,0,0,0,0,0,0,0,0,0,0,0,0,0,0,0,0,0,0,0,0,0,0,0,0],"sum_hessian":[2.688E3,1.064E3,1.624E3,9.22E2,1.42E2,2.59E2,1.365E3,2.7E2,6.52E2,2.1E1,1.21E2,2.38E2,2.1E1,8.99E2,4.66E2,2.58E2,1.2E1,4.62E2,1.9E2,5E0,1.6E1,4.4E1,7.7E1,2.28E2,1E1,1.1E1,1E1,6.63E2,2.36E2,1.18E2,3.48E2,2.45E2,1.3E1,3E0,9E0,2.9E2,1.72E2,1.32E2,5.8E1,2E0,3E0,1E1,6E0,2.8E1,1.6E1,6.4E1,1.3E1,3.3E1,1.95E2,7E0,3E0,9E0,2E0,3.36E2,3.27E2,1.88E2,4.8E1,2.1E1,9.7E1,5.1E1,2.97E2],"tree_param":{"num_deleted":"0","num_feature":"3","num_nodes":"61","size_leaf_vector":"1"}},{"base_weights":[2.5845968E-4,6.6186087E-3,-3.9100433E-3,1.3222777E-3,4.0757734E-2,-2.8597191E-2,7.916909E-4,-5.5747308E-2,3.903116E-3,2.5686337E-2,1.2248285E-1,-1.9398505E-2,-8.9170866E-2,7.6571316E-3,-1.2441047E-2,-7.409011E-2,6.0543574E-2,1.1662734E-2,-1.5177753E-2,5.3401902E-2,-1.10155284E-1,3.152817E-1,-3.52457E-2,7.24076E-2,-2.3962876E-2,-1.1847204E-1,-3.2724958E-2,-3.9098957E-3,4.003202E-2,-5.6718517E-2,2.6920773E-3,-1.9314028E-3,-1.2475007E-2,1.7361775E-2,-1.104032E-2,4.9004336E-3,3.914543E-4,-6.3024024E-3,6.928642E-4,-4.0981583E-3,7.837764E-3,-1.6920043E-2,-2.8285598E-3,5.0719045E-3,6.994459E-2,-2.6531974E-2,1.9986345E-2,1.3718477E-2,-1.4605974E-2,-3.6600232E-3,2.956421E-3,-1.9220157E-3,-1.9958027E-2,1.8341666E-2,-8.869767E-3,-1.0829553E-3,5.8950474E-3,1.8284513E-2,2.3081978E-3,-1.1274373E-2,-4.356267E-3,-6.83944E-3,1.5087395E-3],"categories":[],"categories_nodes":[],"categories_segments":[],"categories_sizes":[],"default_left":[0,0,0,0,0,0,0,0,0,0,0,0,0,0,0,0,0,0,0,0,0,0,0,0,0,0,0,0,0,0,0,0,0,0,0,0,0,0,0,0,0,0,0,0,0,0,0,0,0,0,0,0,0,0,0,0,0,0,0,0,0,0,0],"id":27,"left_children":[1,3,5,7,9,11,13,15,17,19,21,23,25,27,29,31,33,35,37,39,41,43,45,47,49,51,53,55,57,59,61,-1,-1,-1,-1,-1,-1,-1,-1,-1,-1,-1,-1,-1,-1,-1,-1,-1,-1,-1,-1,-1,-1,-1,-1,-1,-1,-1,-1,-1,-1,-1,-1],"loss_changes":[7.131745E-2,1.9251099E-1,1.8864031E-1,1.3616383E-1,1.7298865E-1,1.4314176E-1,1.241944E-1,8.9809686E-2,1.3106227E-1,4.652037E-1,6.8012965E-1,9.685655E-2,5.235669E-2,3.371896E-1,3.1306905E-1,9.4714E-2,1.3514595E-1,1.8179664E-1,2.7121004E-1,2.4365634E-1,9.6728235E-2,9.808797E-1,7.562303E-1,1.757058E-1,1.4786974E-1,1.7326719E-1,1.7354304E-1,2.8945988E-1,5.694826E-1,8.279863E-2,3.0854955E-1,0E0,0E0,0E0,0E0,0E0,0E0,0E0,0E0,0E0,0E0,0E0,0E0,0E0,0E0,0E0,0E0,0E0,0E0,0E0,0E0,0E0,0E0,0E0,0E0,0E0,0E0,0E0,0E0,0E0,0E0,0E0,0E0],"parents":[2147483647,0,0,1,1,2,2,3,3,4,4,5,5,6,6,7,7,8,8,9,9,10,10,11,11,12,12,13,13,14,14,15,15,16,16,17,17,18,18,19,19,20,20,21,21,22,22,23,23,24,24,25,25,26,26,27,27,28,28,29,29,30,30],"right_children":[2,4,6,8,10,12,14,16,18,20,22,24,26,28,30,32,34,36,38,40,42,44,46,48,50,52,54,56,58,60,62,-1,-1,-1,-1,-1,-1,-1,-1,-1,-1,-1,-1,-1,-1,-1,-1,-1,-1,-1,-1,-1,-1,-1,-1,-1,-1,-1,-1,-1,-1,-1,-1],"split_conditions":[8E0,7E0,1E1,1E0,6E0,6E0,1.6E1,6E0,5E0,5E0,1.1E1,1E0,1.4E1,1.2E1,1.8E1,3E0,4E0,5E0,8E0,1E0,1.5E1,7E0,1.7E1,5E0,5E0,9E0,1.5E1,1.9E1,1.1E1,1.2E1,1E0,-1.9314028E-3,-1.2475007E-2,1.7361775E-2,-1.104032E-2,4.9004336E-3,3.914543E-4,-6.3024024E-3,6.928642E-4,-4.0981583E-3,7.837764E-3,-1.6920043E-2,-2.8285598E-3,5.0719045E-3,6.994459E-2,-2.6531974E-2,1.9986345E-2,1.3718477E-2,-1.4605974E-2,-3.6600232E-3,2.956421E-3,-1.9220157E-3,-1.9958027E-2,1.8341666E-2,-8.869767E-3,-1.0829553E-3,5.8950474E-3,1.8284513E-2,2.3081978E-3,-1.1274373E-2,-4.356267E-3,-6.83944E-3,1.5087395E-3],"split_indices":[0,0,0,1,2,2,1,2,2,2,1,1,1,1,1,2,0,1,1,2,1,1,1,2,2,0,1,0,0,0,2,0,0,0,0,0,0,0,0,0,0,0,0,0,0,0,0,0,0,0,0,0,0,0,0,0,0,0,0,0,0,0,0],"split_type":[0,0,0,0,0,0,0,0,0,0,0,0,0,0,0,0,0,0,0,0,0,0,0,0,0,0,0,0,0,0,0,0,0,0,0,0,0,0,0,0,0,0,0,0,0,0,0,0,0,0,0,0,0,0,0,0,0,0,0,0,0,0,0],"sum_hessian":[2.688E3,1.064E3,1.624E3,9.22E2,1.42E2,2.59E2,1.365E3,3.9E1,8.83E2,1.21E2,2.1E1,2.26E2,3.3E1,8.99E2,4.66E2,3.4E1,5E0,6.28E2,2.55E2,1.01E2,2E1,9E0,1.2E1,1E1,2.16E2,2.1E1,1.2E1,6.63E2,2.36E2,1.18E2,3.48E2,1.7E1,1.7E1,3E0,2E0,1.07E2,5.21E2,8E1,1.75E2,2.1E1,8E1,1.1E1,9E0,6E0,3E0,6E0,6E0,8E0,2E0,1.75E2,4.1E1,1E1,1.1E1,2E0,1E1,5.98E2,6.5E1,2.4E1,2.12E2,2.1E1,9.7E1,5.1E1,2.97E2],"tree_param":{"num_deleted":"0","num_feature":"3","num_nodes":"63","size_leaf_vector":"1"}},{"base_weights":[2.4544552E-4,2.4148182E-3,-1.1923899E-2,-2.7584963E-5,1.9886822E-2,-7.569216E-2,-3.388342E-3,3.0998525E-3,-4.3694805E-2,9.613588E-2,-5.023893E-3,-1.1496608E-1,2.6877036E-3,-1.0532895E-2,6.120522E-2,-3.3164996E-4,4.7228888E-2,9.1456965E-2,-4.748803E-2,-7.167611E-2,1.3637216E-1,1.0402819E-2,-9.212424E-2,-5.5993604E-3,-1.4319005E-2,-1.32006155E-2,6.981065E-2,-1.1730157E-3,-1.5321241E-1,1.090222E-1,-4.3513928E-2,-5.212964E-4,1.3852329E-3,-2.3562368E-3,9.186393E-3,-1.0932026E-2,3.4689434E-2,-1.7529694E-2,-3.995083E-3,1.6112031E-2,-1.23902215E-2,-1.8646136E-2,1.8629657E-2,2.0492994E-3,-1.4739925E-2,-1.6488899E-2,2.506711E-2,1.5881945E-3,3.3151325E-2,1.8369472E-3,-2.639449E-3,-1.884062E-2,-6.093736E-3,-1.5248196E-2,1.5161286E-2,1.2854474E-2,-2.3699671E-2],"categories":[],"categories_nodes":[],"categories_segments":[],"categories_sizes":[],"default_left":[0,0,0,0,0,0,0,0,0,0,0,0,0,0,0,0,0,0,0,0,0,0,0,0,0,0,0,0,0,0,0,0,0,0,0,0,0,0,0,0,0,0,0,0,0,0,0,0,0,0,0,0,0,0,0,0,0],"id":28,"left_children":[1,3,5,7,9,11,13,15,17,19,21,23,25,27,29,31,33,35,37,39,41,43,45,-1,-1,-1,47,49,51,53,55,-1,-1,-1,-1,-1,-1,-1,-1,-1,-1,-1,-1,-1,-1,-1,-1,-1,-1,-1,-1,-1,-1,-1,-1,-1,-1],"loss_changes":[7.1017966E-2,9.742455E-2,2.2127265E-1,2.7381474E-1,5.323201E-1,1.4806667E-1,1.6678186E-1,2.833391E-1,7.303965E-2,4.7567177E-1,2.8581682E-1,4.5244306E-2,1.6291326E-1,4.338458E-1,1.850087E-1,1.2033594E-1,4.2873353E-1,2.430666E-1,1.19191915E-1,1.9017586E-1,9.3730426E-1,2.9121798E-1,8.395221E-1,0E0,0E0,0E0,1.640943E-1,1.5130928E-1,5.346921E-2,3.0155903E-1,4.2994934E-1,0E0,0E0,0E0,0E0,0E0,0E0,0E0,0E0,0E0,0E0,0E0,0E0,0E0,0E0,0E0,0E0,0E0,0E0,0E0,0E0,0E0,0E0,0E0,0E0,0E0,0E0],"parents":[2147483647,0,0,1,1,2,2,3,3,4,4,5,5,6,6,7,7,8,8,9,9,10,10,11,11,12,12,13,13,14,14,15,15,16,16,17,17,18,18,19,19,20,20,21,21,22,22,26,26,27,27,28,28,29,29,30,30],"right_children":[2,4,6,8,10,12,14,16,18,20,22,24,26,28,30,32,34,36,38,40,42,44,46,-1,-1,-1,48,50,52,54,56,-1,-1,-1,-1,-1,-1,-1,-1,-1,-1,-1,-1,-1,-1,-1,-1,-1,-1,-1,-1,-1,-1,-1,-1,-1,-1],"split_conditions":[1.7E1,1.5E1,3E0,1.4E1,6E0,1.9E1,2.2E1,1.3E1,1E0,1E0,6E0,1E0,1E0,2.1E1,1.9E1,1.8E1,9E0,3E0,2E0,1E0,1E0,2.3E1,2.1E1,-5.5993604E-3,-1.4319005E-2,-1.32006155E-2,6E0,4E0,1.9E1,1E0,2.3E1,-5.212964E-4,1.3852329E-3,-2.3562368E-3,9.186393E-3,-1.0932026E-2,3.4689434E-2,-1.7529694E-2,-3.995083E-3,1.6112031E-2,-1.23902215E-2,-1.8646136E-2,1.8629657E-2,2.0492994E-3,-1.4739925E-2,-1.6488899E-2,2.506711E-2,1.5881945E-3,3.3151325E-2,1.8369472E-3,-2.639449E-3,-1.884062E-2,-6.093736E-3,-1.5248196E-2,1.5161286E-2,1.2854474E-2,-2.3699671E-2],"split_indices":[0,0,1,0,1,0,1,0,1,1,2,1,1,1,0,1,1,2,1,2,2,1,1,0,0,0,2,2,0,2,1,